{"classifier":{"brain":{"sizes":[90,45,2],"layers":[{"0":{},"1":{},"2":{},"3":{},"4":{},"5":{},"6":{},"7":{},"8":{},"9":{},"10":{},"11":{},"12":{},"13":{},"14":{},"15":{},"16":{},"17":{},"18":{},"19":{},"20":{},"21":{},"22":{},"23":{},"24":{},"25":{},"26":{},"27":{},"28":{},"29":{},"30":{},"31":{},"32":{},"33":{},"34":{},"35":{},"36":{},"37":{},"38":{},"39":{},"40":{},"41":{},"42":{},"43":{},"44":{},"45":{},"46":{},"47":{},"48":{},"49":{},"50":{},"51":{},"52":{},"53":{},"54":{},"55":{},"56":{},"57":{},"58":{},"59":{},"60":{},"61":{},"62":{},"63":{},"64":{},"65":{},"66":{},"67":{},"68":{},"69":{},"70":{},"71":{},"72":{},"73":{},"74":{},"75":{},"76":{},"77":{},"78":{},"79":{},"80":{},"81":{},"82":{},"83":{},"84":{},"85":{},"86":{},"87":{},"88":{},"89":{}},{"0":{"bias":0.06472469121217728,"weights":{"0":0.1834792196750641,"1":0.04580850526690483,"2":0.01988769695162773,"3":0.012973606586456299,"4":0.17965048551559448,"5":0.04016513749957085,"6":-0.11457501351833344,"7":0.38157567381858826,"8":0.142188161611557,"9":0.5564039945602417,"10":0.3751397132873535,"11":0.34829676151275635,"12":0.462825745344162,"13":0.4620082974433899,"14":0.4483838677406311,"15":-0.6453997492790222,"16":-0.5844017267227173,"17":-0.6371297240257263,"18":-0.053190141916275024,"19":-0.03525090590119362,"20":-0.024328676983714104,"21":-0.07859483361244202,"22":-0.3217179477214813,"23":-0.13136601448059082,"24":-0.11041587591171265,"25":-0.30079615116119385,"26":-0.29226619005203247,"27":-0.22299714386463165,"28":-0.03068983368575573,"29":-0.18630826473236084,"30":-0.1629321277141571,"31":0.06356655806303024,"32":-0.21038271486759186,"33":-0.5285874009132385,"34":-0.2079319953918457,"35":-0.16497164964675903,"36":-0.015643363818526268,"37":-0.16424432396888733,"38":0.15590815246105194,"39":-0.10802797228097916,"40":-0.06665778905153275,"41":0.17447209358215332,"42":-0.19546397030353546,"43":0.027231473475694656,"44":0.09998411685228348,"45":-0.051846034824848175,"46":-0.10210414230823517,"47":0.03651198372244835,"48":-0.08512380719184875,"49":-0.08675970882177353,"50":-0.017395852133631706,"51":0.15850482881069183,"52":0.07618197798728943,"53":0.036817967891693115,"54":0.07985236495733261,"55":-0.3231917917728424,"56":-0.32566314935684204,"57":-0.34196433424949646,"58":-0.13011692464351654,"59":-0.08719619363546371,"60":0.020910438150167465,"61":-0.06605853885412216,"62":-0.08235479891300201,"63":0.10785243660211563,"64":0.04929346218705177,"65":-0.15391209721565247,"66":-0.01995428465306759,"67":0.08395370095968246,"68":-0.03078852780163288,"69":0.1779932677745819,"70":-0.032072678208351135,"71":-0.2084362506866455,"72":0.09834886342287064,"73":0.12567943334579468,"74":-0.16751284897327423,"75":-0.10059802234172821,"76":-0.15246586501598358,"77":-0.1721200793981552,"78":-0.3419680595397949,"79":-0.10664450377225876,"80":0.1452590674161911,"81":0.14403386414051056,"82":-0.13800741732120514,"83":-0.028013307601213455,"84":0.09204766154289246,"85":-0.20765702426433563,"86":-0.014493287540972233,"87":0.158079594373703,"88":-0.1433606594800949,"89":-0.20423537492752075}},"1":{"bias":0.1362718939781189,"weights":{"0":-0.13146990537643433,"1":-0.09032602608203888,"2":-0.1353590190410614,"3":0.021740110591053963,"4":-0.027486197650432587,"5":0.1172795221209526,"6":0.03303784877061844,"7":0.0562639981508255,"8":-0.035071246325969696,"9":0.17388738691806793,"10":0.07626856863498688,"11":0.2984507083892822,"12":0.1313008964061737,"13":0.10542437434196472,"14":0.2804652154445648,"15":-0.45415911078453064,"16":-0.28659987449645996,"17":-0.4931096136569977,"18":0.1300024539232254,"19":0.05844938009977341,"20":0.12599866092205048,"21":-0.1716180443763733,"22":0.0006869476055726409,"23":0.153514564037323,"24":-0.21210820972919464,"25":-0.039630286395549774,"26":-0.04666022211313248,"27":-0.0915641263127327,"28":0.11827390640974045,"29":-0.16594889760017395,"30":0.0076329815201461315,"31":-0.06993617117404938,"32":-0.06452836841344833,"33":-0.1812444031238556,"34":-0.17860157787799835,"35":0.13350872695446014,"36":-0.12126702815294266,"37":-0.23659121990203857,"38":0.08426941931247711,"39":-0.2126283496618271,"40":-0.015462297946214676,"41":0.03551696240901947,"42":-0.047115176916122437,"43":0.06745365262031555,"44":0.0996241420507431,"45":0.032786205410957336,"46":0.051303569227457047,"47":-0.05257324501872063,"48":0.010105631314218044,"49":-0.13804113864898682,"50":0.055477771908044815,"51":0.06769918650388718,"52":-0.051814742386341095,"53":0.09401672333478928,"54":0.0627700611948967,"55":0.06618796288967133,"56":-0.19110488891601562,"57":-0.2937816083431244,"58":-0.11156589537858963,"59":-0.04642396420240402,"60":-0.0018279746873304248,"61":0.11082718521356583,"62":-0.20201295614242554,"63":-0.14842350780963898,"64":0.06759831309318542,"65":-0.024388387799263,"66":-0.023411352187395096,"67":0.10183607041835785,"68":0.019119158387184143,"69":0.10158421099185944,"70":-0.21024033427238464,"71":0.1307862102985382,"72":-0.004171211738139391,"73":0.04950806498527527,"74":0.18782514333724976,"75":-0.013768086209893227,"76":0.07149352133274078,"77":0.04762354865670204,"78":-0.0201155636459589,"79":-0.10410939902067184,"80":-0.02326500415802002,"81":0.13964730501174927,"82":-0.15180303156375885,"83":0.1328563392162323,"84":-0.027921177446842194,"85":0.055583205074071884,"86":0.16152937710285187,"87":0.17787377536296844,"88":-0.03148668631911278,"89":-0.029914120212197304}},"2":{"bias":-0.09298785775899887,"weights":{"0":0.1934686303138733,"1":0.06004415452480316,"2":-0.0038800379261374474,"3":-0.04606528952717781,"4":-0.09617666155099869,"5":-0.14824438095092773,"6":0.18479064106941223,"7":-0.002105237450450659,"8":0.061018623411655426,"9":-0.1799275130033493,"10":-0.29460567235946655,"11":-0.07766127586364746,"12":-0.2225794941186905,"13":-0.16826453804969788,"14":0.011388173326849937,"15":0.17760469019412994,"16":0.3579861521720886,"17":0.1895408183336258,"18":0.0025359895080327988,"19":0.20467238128185272,"20":-0.10573913902044296,"21":0.1683369278907776,"22":-0.03737446665763855,"23":-0.10421662777662277,"24":0.05499925836920738,"25":0.24378710985183716,"26":0.06072860583662987,"27":-0.0006925271591171622,"28":-0.10145430266857147,"29":0.08939546346664429,"30":-0.0030526495538651943,"31":-0.02963588573038578,"32":0.10317593067884445,"33":0.18466559052467346,"34":-0.10871171206235886,"35":0.034863345324993134,"36":0.16890296339988708,"37":-0.15455375611782074,"38":0.04565700516104698,"39":0.12523984909057617,"40":0.010124887339770794,"41":-0.0657048374414444,"42":0.0574447438120842,"43":0.1727055162191391,"44":-0.19086892902851105,"45":0.018136823549866676,"46":0.03915413096547127,"47":0.1706841140985489,"48":-0.03874632716178894,"49":0.020601477473974228,"50":0.15906062722206116,"51":-0.11928892135620117,"52":-0.03171675652265549,"53":-0.00781916081905365,"54":-0.09148720651865005,"55":0.2576157748699188,"56":0.12600432336330414,"57":0.10078635066747665,"58":0.010078603401780128,"59":-0.1678609400987625,"60":-0.12799116969108582,"61":-0.17275136709213257,"62":-0.03302476555109024,"63":-0.09822354465723038,"64":0.12885618209838867,"65":0.007109671365469694,"66":-0.03548411279916763,"67":0.16962315142154694,"68":-0.11854898184537888,"69":-0.029561249539256096,"70":0.2186523675918579,"71":-0.006044866982847452,"72":0.19214461743831635,"73":0.09286100417375565,"74":-0.04973066970705986,"75":0.027204761281609535,"76":0.17955993115901947,"77":0.16750329732894897,"78":0.19231000542640686,"79":-0.10156279802322388,"80":0.024271531030535698,"81":0.16206508874893188,"82":0.04323122650384903,"83":0.060128819197416306,"84":-0.09033036977052689,"85":-0.07017600536346436,"86":0.1464385837316513,"87":0.00013809620577376336,"88":-0.03645438328385353,"89":0.22877147793769836}},"3":{"bias":-0.18305855989456177,"weights":{"0":0.09888064861297607,"1":0.11914791166782379,"2":0.09907922893762589,"3":-0.09911160171031952,"4":-0.051474619656801224,"5":0.07559581845998764,"6":-0.1680903434753418,"7":-0.02136273682117462,"8":-0.18373741209506989,"9":-0.25425371527671814,"10":-0.18868538737297058,"11":-0.015007073991000652,"12":-0.059042636305093765,"13":0.13536342978477478,"14":0.04510664567351341,"15":0.04605259373784065,"16":0.22816534340381622,"17":0.06915104389190674,"18":-0.18143333494663239,"19":-0.053424540907144547,"20":0.04219619184732437,"21":-0.04729723930358887,"22":0.022234607487916946,"23":0.06182020157575607,"24":-0.042550940066576004,"25":-0.08633597940206528,"26":0.04151011258363724,"27":-0.06632165610790253,"28":0.10008678585290909,"29":0.1720399409532547,"30":0.01726757362484932,"31":-0.09318207204341888,"32":0.07500354200601578,"33":0.1932949423789978,"34":-0.010995849967002869,"35":-0.11595635116100311,"36":-0.13015128672122955,"37":0.06209877133369446,"38":-0.004608840215951204,"39":0.11029309779405594,"40":-0.017634384334087372,"41":0.1794852465391159,"42":-0.11988953500986099,"43":0.19669054448604584,"44":-0.1488105058670044,"45":0.04756716638803482,"46":-0.19494010508060455,"47":0.0525977723300457,"48":0.0037378633860498667,"49":0.050495874136686325,"50":0.002875952050089836,"51":0.15684345364570618,"52":0.19373364746570587,"53":0.15889476239681244,"54":-0.06160944700241089,"55":-0.012989940121769905,"56":0.004589224699884653,"57":0.0730837732553482,"58":0.0038904163520783186,"59":0.020569590851664543,"60":0.12716743350028992,"61":-0.05294930562376976,"62":-0.061165664345026016,"63":-0.020050758495926857,"64":-0.08795827627182007,"65":0.07862028479576111,"66":0.05341516435146332,"67":-0.17757663130760193,"68":0.16272121667861938,"69":0.06457249075174332,"70":-0.1186709925532341,"71":-0.03780438378453255,"72":0.11151334643363953,"73":-0.1254321187734604,"74":-0.1941041648387909,"75":-0.13580234348773956,"76":0.0213093850761652,"77":-0.1670716106891632,"78":0.01470573153346777,"79":0.15143442153930664,"80":-0.1654331386089325,"81":-0.09701903164386749,"82":-0.18577489256858826,"83":0.05364743247628212,"84":-0.08981195092201233,"85":-0.11535220593214035,"86":-0.025839533656835556,"87":0.10853592306375504,"88":-0.19183358550071716,"89":0.007695901207625866}},"4":{"bias":-0.02793659083545208,"weights":{"0":-0.16827639937400818,"1":0.11658831685781479,"2":0.05373457446694374,"3":-0.06700512021780014,"4":-0.021180827170610428,"5":-0.14394865930080414,"6":0.08371923118829727,"7":0.08064544200897217,"8":-0.07297007739543915,"9":-0.04295499622821808,"10":-0.028277218341827393,"11":0.15492907166481018,"12":-0.1134931668639183,"13":0.23934298753738403,"14":0.24270164966583252,"15":-0.12652042508125305,"16":-0.11729787290096283,"17":0.01996096596121788,"18":-0.10693162679672241,"19":-0.18704047799110413,"20":-0.05514969304203987,"21":-0.19641946256160736,"22":-0.06948648393154144,"23":0.1532294601202011,"24":0.11291248351335526,"25":0.18375684320926666,"26":-0.019747555255889893,"27":0.1406891793012619,"28":-0.2092195749282837,"29":0.14723587036132812,"30":-0.19176506996154785,"31":-0.019305607303977013,"32":0.12509267032146454,"33":0.020136473700404167,"34":0.12796318531036377,"35":0.07719296216964722,"36":-0.010974354110658169,"37":-0.0914628729224205,"38":0.11205451935529709,"39":-0.18448269367218018,"40":0.043464355170726776,"41":0.06331226229667664,"42":0.03959900885820389,"43":-0.021376483142375946,"44":-0.11423070728778839,"45":0.09750408679246902,"46":0.11330562084913254,"47":0.0762406438589096,"48":-0.04718390852212906,"49":-0.04721243679523468,"50":-0.13825061917304993,"51":-0.061880793422460556,"52":-0.10612417012453079,"53":0.14974893629550934,"54":0.05619733780622482,"55":0.08587390929460526,"56":0.011375277303159237,"57":0.13451652228832245,"58":-0.15446153283119202,"59":0.1711491048336029,"60":0.1010909453034401,"61":0.14657631516456604,"62":-0.1536605954170227,"63":-0.12128287553787231,"64":0.10653136670589447,"65":-0.023614881560206413,"66":0.1553933024406433,"67":0.09730648249387741,"68":-0.09232303500175476,"69":-0.17247724533081055,"70":0.18581373989582062,"71":-0.17622150480747223,"72":-0.14017684757709503,"73":-0.040959980338811874,"74":0.11234055459499359,"75":-0.09663750976324081,"76":0.023496510460972786,"77":0.1866855025291443,"78":-0.19500164687633514,"79":-0.14303013682365417,"80":-0.1836453527212143,"81":0.10558655112981796,"82":0.1938774287700653,"83":0.07721922546625137,"84":-0.1715165078639984,"85":0.11303947120904922,"86":0.0756617933511734,"87":0.16446472704410553,"88":-0.10130516439676285,"89":-0.08039800822734833}},"5":{"bias":-0.1327189803123474,"weights":{"0":-0.1334327608346939,"1":0.05088001489639282,"2":0.05082537233829498,"3":0.14246918261051178,"4":0.026329010725021362,"5":-0.1403556913137436,"6":-0.1790548413991928,"7":0.25401395559310913,"8":0.08879081904888153,"9":0.17696072161197662,"10":0.15586863458156586,"11":0.1467268317937851,"12":-0.04577980190515518,"13":-0.009756087325513363,"14":0.29446595907211304,"15":-0.21663731336593628,"16":-0.3100961148738861,"17":-0.4009977877140045,"18":0.008034931495785713,"19":-0.13109420239925385,"20":0.15670958161354065,"21":-0.055155590176582336,"22":0.06037461757659912,"23":-0.04678997024893761,"24":0.08807780593633652,"25":-0.15119846165180206,"26":0.1591617912054062,"27":0.07778876274824142,"28":0.09647485613822937,"29":-0.06553598493337631,"30":0.16341491043567657,"31":0.050962116569280624,"32":0.14225590229034424,"33":0.005189401097595692,"34":-0.20542708039283752,"35":-0.0014386344701051712,"36":-0.13940972089767456,"37":0.019732890650629997,"38":0.08761091530323029,"39":-0.21592342853546143,"40":-0.12214043736457825,"41":-0.050060681998729706,"42":0.06446566432714462,"43":-0.034672074019908905,"44":-0.00012729119043797255,"45":-0.04904386028647423,"46":-0.03363802656531334,"47":-0.12299465388059616,"48":-0.04217209666967392,"49":-0.0930640920996666,"50":-0.098868727684021,"51":-0.07340264320373535,"52":0.05308599770069122,"53":0.11421690881252289,"54":0.01983090117573738,"55":-0.16616031527519226,"56":-0.18179360032081604,"57":-0.22402241826057434,"58":0.01774413324892521,"59":-0.0346699133515358,"60":0.008578788489103317,"61":0.04035855457186699,"62":0.18701252341270447,"63":-0.07732536643743515,"64":-0.16370390355587006,"65":0.0662168562412262,"66":0.12636010348796844,"67":0.08854915201663971,"68":0.19420257210731506,"69":0.08754635602235794,"70":0.11480728536844254,"71":-0.05247627571225166,"72":0.083747997879982,"73":-0.07504232972860336,"74":0.18155714869499207,"75":-0.18665486574172974,"76":-0.18557892739772797,"77":0.039431147277355194,"78":-0.30655717849731445,"79":0.11726471036672592,"80":-0.1468525379896164,"81":0.02812992036342621,"82":0.19277828931808472,"83":-0.1247732937335968,"84":-0.030948057770729065,"85":-0.1594645082950592,"86":-0.09740997850894928,"87":-0.13967078924179077,"88":-0.1719980239868164,"89":-0.12389783561229706}},"6":{"bias":-0.23631761968135834,"weights":{"0":-0.15600180625915527,"1":-0.037643395364284515,"2":0.022329822182655334,"3":0.02552088536322117,"4":-0.16977576911449432,"5":-0.061394739896059036,"6":-0.13422629237174988,"7":-0.03762912377715111,"8":0.08669640868902206,"9":0.1854681521654129,"10":-0.18620982766151428,"11":-0.17551732063293457,"12":-0.055065229535102844,"13":0.1988430768251419,"14":-0.08383689075708389,"15":-0.23954662680625916,"16":-0.03727012500166893,"17":-0.06943006813526154,"18":0.1677730530500412,"19":-0.11152038723230362,"20":0.07921414822340012,"21":0.08243825286626816,"22":0.13959023356437683,"23":0.08502105623483658,"24":-0.019822632893919945,"25":-0.1038474515080452,"26":0.03540296480059624,"27":0.05976462364196777,"28":0.17550361156463623,"29":0.1382637768983841,"30":-0.03774793818593025,"31":-0.19616754353046417,"32":0.19372862577438354,"33":-0.05943503975868225,"34":-0.07847882807254791,"35":0.04739116132259369,"36":0.1722741425037384,"37":-0.08341144025325775,"38":0.07799454033374786,"39":0.00688837468624115,"40":-0.1804497390985489,"41":-0.005542652681469917,"42":0.030888844281435013,"43":0.14011257886886597,"44":0.15780481696128845,"45":0.14436101913452148,"46":0.05694524198770523,"47":-0.1901213526725769,"48":0.022942492738366127,"49":0.15360724925994873,"50":0.08372951298952103,"51":0.08787178248167038,"52":-0.12447358667850494,"53":0.16261260211467743,"54":-0.17508850991725922,"55":-0.15759125351905823,"56":-0.02735779620707035,"57":-0.02806568145751953,"58":0.03237233683466911,"59":-0.021867424249649048,"60":0.13554781675338745,"61":-0.14791390299797058,"62":-0.13668811321258545,"63":0.05779007077217102,"64":0.07413166761398315,"65":0.07384108006954193,"66":-0.08454164862632751,"67":-0.07576397806406021,"68":0.12090866267681122,"69":-0.030982227995991707,"70":0.17764639854431152,"71":-0.02557358704507351,"72":0.023196600377559662,"73":-0.10735728591680527,"74":-0.0036058647092431784,"75":0.1532568484544754,"76":-0.11700569838285446,"77":-0.1679162085056305,"78":-0.19464553892612457,"79":-0.06327406316995621,"80":-0.005868981592357159,"81":0.1656784564256668,"82":-0.07469351589679718,"83":-0.08728308230638504,"84":0.09690434485673904,"85":0.16034720838069916,"86":0.019889261573553085,"87":0.10695219784975052,"88":-0.08211418986320496,"89":0.006703231483697891}},"7":{"bias":0.09774897992610931,"weights":{"0":-0.028541013598442078,"1":0.1028648391366005,"2":0.05360491946339607,"3":0.09135285764932632,"4":-0.15595030784606934,"5":-0.11656413227319717,"6":-0.025978315621614456,"7":0.5518195629119873,"8":0.20554645359516144,"9":0.5392619967460632,"10":0.5980212092399597,"11":0.24844153225421906,"12":0.4835042953491211,"13":0.16024330258369446,"14":0.4658264219760895,"15":-0.5927969813346863,"16":-0.6717563271522522,"17":-0.5188032388687134,"18":-0.18000048398971558,"19":-0.2453821748495102,"20":-0.182827427983284,"21":-0.023501703515648842,"22":-0.4298022389411926,"23":-0.058070287108421326,"24":-0.2821204364299774,"25":-0.0140383867546916,"26":0.019079316407442093,"27":-0.48337772488594055,"28":-0.1329297572374344,"29":-0.22215953469276428,"30":-0.22649206221103668,"31":-0.18542134761810303,"32":0.15306183695793152,"33":-0.39031481742858887,"34":-0.28785157203674316,"35":0.04549421742558479,"36":-0.06972818821668625,"37":0.08869802951812744,"38":-0.22461046278476715,"39":-0.3609634041786194,"40":0.05381890758872032,"41":0.10725542157888412,"42":0.0491458997130394,"43":0.13887250423431396,"44":0.13147787749767303,"45":0.01090809516608715,"46":-0.1896057426929474,"47":-0.035986874252557755,"48":0.15355341136455536,"49":-0.0386815182864666,"50":-0.07539686560630798,"51":-0.08211545646190643,"52":-0.025201085954904556,"53":0.07599764317274094,"54":0.104085773229599,"55":0.006580974906682968,"56":-0.09158983826637268,"57":-0.298382431268692,"58":-0.13386979699134827,"59":-0.2064846307039261,"60":-0.01089298352599144,"61":0.10708290338516235,"62":-0.047993890941143036,"63":-0.1550407111644745,"64":0.15162520110607147,"65":-0.13927173614501953,"66":-0.2260076254606247,"67":-0.14004135131835938,"68":-0.19860149919986725,"69":-0.14347520470619202,"70":0.07606425881385803,"71":-0.032600853592157364,"72":-0.15843233466148376,"73":-0.13150200247764587,"74":-0.16218379139900208,"75":-0.19456997513771057,"76":0.007427791599184275,"77":0.07629013061523438,"78":-0.45476624369621277,"79":-0.015783850103616714,"80":-0.18699999153614044,"81":0.018860045820474625,"82":0.12885235249996185,"83":-0.11898455023765564,"84":0.12319430708885193,"85":0.08333490788936615,"86":-0.007414249703288078,"87":-0.18981055915355682,"88":-0.1521185040473938,"89":-0.3263603150844574}},"8":{"bias":0.06924574822187424,"weights":{"0":-0.15732115507125854,"1":0.014185101725161076,"2":-0.11130305379629135,"3":-0.036065030843019485,"4":-0.08018253743648529,"5":0.14661729335784912,"6":0.1321372091770172,"7":-0.31916916370391846,"8":-0.2484852373600006,"9":-0.6437286734580994,"10":-0.5691660046577454,"11":-0.49923479557037354,"12":-0.2959895730018616,"13":-0.4697718024253845,"14":-0.45110124349594116,"15":0.5946853756904602,"16":0.4130668044090271,"17":0.41919538378715515,"18":-0.11618142575025558,"19":0.009700028225779533,"20":0.11095598340034485,"21":0.18742209672927856,"22":0.23756897449493408,"23":0.07391487061977386,"24":0.28196367621421814,"25":0.24695394933223724,"26":0.28445324301719666,"27":0.26408401131629944,"28":0.09678559005260468,"29":0.07355309277772903,"30":-0.10842585563659668,"31":-0.04598594829440117,"32":-0.06021514907479286,"33":0.26515522599220276,"34":-0.044381577521562576,"35":-0.012201582081615925,"36":0.03988661989569664,"37":0.005860619712620974,"38":-0.04107563942670822,"39":0.05266951024532318,"40":-0.04934481531381607,"41":0.056521058082580566,"42":-0.18384742736816406,"43":0.06173558905720711,"44":0.02690998464822769,"45":-0.042866259813308716,"46":-0.18310584127902985,"47":0.0062519521452486515,"48":-0.023330673575401306,"49":-0.014700564555823803,"50":-0.13207244873046875,"51":0.15451331436634064,"52":0.20185205340385437,"53":-0.18034423887729645,"54":-0.15974527597427368,"55":0.12936344742774963,"56":0.1739310622215271,"57":0.20971103012561798,"58":0.03115418180823326,"59":-0.0935174971818924,"60":0.11593279987573624,"61":-0.08037468791007996,"62":0.2279936969280243,"63":0.007413923740386963,"64":0.20414181053638458,"65":0.0946001186966896,"66":0.11160765588283539,"67":0.16439194977283478,"68":0.19623418152332306,"69":-0.0033745758701115847,"70":0.014518031850457191,"71":-0.030612945556640625,"72":-0.08477834612131119,"73":-0.06197261065244675,"74":0.18068253993988037,"75":-0.07422925531864166,"76":0.17889437079429626,"77":-0.020288145169615746,"78":0.20692673325538635,"79":0.0867857038974762,"80":-0.07913315296173096,"81":0.19760364294052124,"82":-0.17982782423496246,"83":0.10668732225894928,"84":0.007470295764505863,"85":0.1899866759777069,"86":0.0012776472140103579,"87":-0.13604775071144104,"88":0.03317692130804062,"89":0.11836320161819458}},"9":{"bias":-0.02930750697851181,"weights":{"0":0.15407821536064148,"1":-0.02958397939801216,"2":-0.0868409126996994,"3":-0.17688539624214172,"4":0.17504414916038513,"5":0.16850893199443817,"6":0.20107817649841309,"7":0.04188643768429756,"8":-0.1959313601255417,"9":0.05163172632455826,"10":-0.096189945936203,"11":0.0811205580830574,"12":-0.04330351948738098,"13":0.10357746481895447,"14":-0.023954834789037704,"15":0.02146526426076889,"16":-0.1395086646080017,"17":0.07451602816581726,"18":-0.03262333571910858,"19":-0.09071242809295654,"20":0.14747099578380585,"21":-0.15873795747756958,"22":0.1636345386505127,"23":-0.08246675878763199,"24":-0.16961455345153809,"25":0.09748402237892151,"26":0.08089422434568405,"27":0.13308605551719666,"28":0.16765938699245453,"29":0.08277662843465805,"30":-0.12588036060333252,"31":0.08982118964195251,"32":0.1346956342458725,"33":0.22769279778003693,"34":-0.004753992427140474,"35":-0.09491046518087387,"36":0.19162239134311676,"37":0.013133518397808075,"38":0.16574732959270477,"39":0.22233714163303375,"40":-0.14197295904159546,"41":0.08744217455387115,"42":0.16232161223888397,"43":-0.16698864102363586,"44":-0.09016773104667664,"45":-0.17636342346668243,"46":0.10137557238340378,"47":0.06354346871376038,"48":0.06626725941896439,"49":-0.06119813024997711,"50":-0.17728427052497864,"51":-0.13104505836963654,"52":-0.18223658204078674,"53":0.05296124145388603,"54":0.03874148800969124,"55":-0.11994272470474243,"56":0.09919773787260056,"57":0.006322720553725958,"58":0.06493455171585083,"59":-0.16690465807914734,"60":0.19563747942447662,"61":-0.03247533738613129,"62":0.06083545461297035,"63":0.10882968455553055,"64":0.10313113778829575,"65":0.12361548095941544,"66":-0.177589550614357,"67":-0.04282120242714882,"68":0.12028943747282028,"69":0.014174191281199455,"70":-0.05755515396595001,"71":-0.10958924889564514,"72":-0.11722679436206818,"73":0.07047271728515625,"74":0.1637248992919922,"75":-0.11019488424062729,"76":-0.1386084258556366,"77":0.007803148590028286,"78":-0.038741108030080795,"79":0.15403147041797638,"80":-0.18265117704868317,"81":0.036246564239263535,"82":0.16201551258563995,"83":0.12219949811697006,"84":0.09245743602514267,"85":0.08571695536375046,"86":0.12454882264137268,"87":-0.10673445463180542,"88":-0.008747032843530178,"89":-0.03330998495221138}},"10":{"bias":-0.07805944979190826,"weights":{"0":-0.04494587332010269,"1":0.18831278383731842,"2":0.03129037469625473,"3":-0.05866892263293266,"4":0.0854230672121048,"5":0.20253601670265198,"6":-0.08189299702644348,"7":-0.22275294363498688,"8":-0.046166155487298965,"9":-0.25328123569488525,"10":-0.49166208505630493,"11":-0.39458027482032776,"12":-0.3568374514579773,"13":-0.19017761945724487,"14":-0.15663252770900726,"15":0.33132538199424744,"16":0.4341564476490021,"17":0.13967512547969818,"18":-0.022988704964518547,"19":0.22003653645515442,"20":0.005927652586251497,"21":0.11758768558502197,"22":-0.011647877283394337,"23":-0.03211553022265434,"24":0.024775518104434013,"25":-0.01169828325510025,"26":-0.08347698301076889,"27":0.3618736267089844,"28":0.032654646784067154,"29":0.2540770173072815,"30":-0.07897337526082993,"31":-0.1450730711221695,"32":-0.07582809031009674,"33":0.10774428397417068,"34":0.18972551822662354,"35":-0.15662364661693573,"36":-0.008978805504739285,"37":-0.038438830524683,"38":0.14991788566112518,"39":0.18292681872844696,"40":0.15430696308612823,"41":0.18444985151290894,"42":0.143730029463768,"43":0.19643600285053253,"44":-0.16410714387893677,"45":0.17903932929039001,"46":-0.005504462402313948,"47":0.16150212287902832,"48":0.09555640071630478,"49":0.10376191884279251,"50":-0.16830313205718994,"51":0.07542336732149124,"52":-0.18518978357315063,"53":-0.13879147171974182,"54":0.09017125517129898,"55":0.012666922062635422,"56":0.1504068374633789,"57":0.2569008767604828,"58":0.016251761466264725,"59":-0.08859223872423172,"60":0.13028718531131744,"61":0.20574457943439484,"62":-0.03826766461133957,"63":0.1572287380695343,"64":-0.11555933207273483,"65":-0.05436667054891586,"66":0.12599819898605347,"67":-0.1509948968887329,"68":-0.17362643778324127,"69":0.15496231615543365,"70":-0.06785645335912704,"71":-0.16578055918216705,"72":0.13676993548870087,"73":-0.18073058128356934,"74":0.07879392057657242,"75":-0.09227918088436127,"76":0.11983116716146469,"77":0.03462054207921028,"78":0.07450045645236969,"79":0.17483258247375488,"80":-0.09303419291973114,"81":0.21229290962219238,"82":-0.12436478585004807,"83":-0.021136971190571785,"84":-0.1522965133190155,"85":0.043146487325429916,"86":-0.14442087709903717,"87":-0.08980236202478409,"88":0.10383334010839462,"89":0.06177854537963867}},"11":{"bias":0.09165246784687042,"weights":{"0":0.06150725111365318,"1":-0.134291872382164,"2":-0.007758502382785082,"3":-0.02093217335641384,"4":-0.17148201167583466,"5":-0.013055398128926754,"6":-0.021182943135499954,"7":0.12927624583244324,"8":0.050589580088853836,"9":0.10588686913251877,"10":0.19103693962097168,"11":-0.11816249042749405,"12":0.13188134133815765,"13":0.11311978846788406,"14":0.21391333639621735,"15":0.002428427105769515,"16":-0.2901405394077301,"17":-0.3054578900337219,"18":-0.08775698393583298,"19":0.05246017873287201,"20":0.038941383361816406,"21":0.03968409076333046,"22":0.14101828634738922,"23":-0.07303570955991745,"24":-0.09386321902275085,"25":0.15512101352214813,"26":0.004729713313281536,"27":0.09445104002952576,"28":0.12808889150619507,"29":-0.20441457629203796,"30":-0.10526524484157562,"31":-0.08105900138616562,"32":-0.20241765677928925,"33":-0.23787499964237213,"34":-0.18832121789455414,"35":0.11154516041278839,"36":0.162266805768013,"37":-0.07572310417890549,"38":-0.08912266045808792,"39":0.15587486326694489,"40":0.1633400171995163,"41":-0.15661084651947021,"42":0.1507435292005539,"43":-0.11241446435451508,"44":0.11057514697313309,"45":-0.03740214183926582,"46":0.1930548995733261,"47":-0.14240649342536926,"48":0.005233847536146641,"49":-0.15644395351409912,"50":-0.17247885465621948,"51":-0.09280417859554291,"52":0.1832108199596405,"53":-0.012967396527528763,"54":0.19404903054237366,"55":-0.08105699717998505,"56":0.136798694729805,"57":-0.05667443200945854,"58":-0.1325419396162033,"59":-0.004945892374962568,"60":-0.17036332190036774,"61":0.06244497373700142,"62":-0.06139380484819412,"63":0.16205766797065735,"64":-0.061330292373895645,"65":0.04165354743599892,"66":-0.15175503492355347,"67":0.12201738357543945,"68":0.008890676312148571,"69":-0.07841038703918457,"70":0.1703222692012787,"71":-0.05808812007308006,"72":0.08738256990909576,"73":0.08544649183750153,"74":0.048262372612953186,"75":-0.10528186708688736,"76":-0.16695138812065125,"77":0.14233970642089844,"78":0.04604620113968849,"79":0.10472138971090317,"80":-0.02435428462922573,"81":0.021122558042407036,"82":0.019620230421423912,"83":-0.031217001378536224,"84":0.1618703305721283,"85":0.16128011047840118,"86":-0.03697541728615761,"87":0.022122222930192947,"88":-0.00646353792399168,"89":0.003360374830663204}},"12":{"bias":0.12380702048540115,"weights":{"0":-0.19957588613033295,"1":-0.03956511989235878,"2":-0.11118601262569427,"3":0.03127596154808998,"4":-0.019252194091677666,"5":-0.07160567492246628,"6":-0.17904017865657806,"7":0.10913176089525223,"8":0.09543969482183456,"9":0.025213951244950294,"10":0.02431698702275753,"11":0.277493953704834,"12":-0.05233478918671608,"13":0.27099770307540894,"14":0.0543154776096344,"15":-0.14125464856624603,"16":-0.3925635516643524,"17":-0.3434256911277771,"18":-0.017538651823997498,"19":-0.04722011089324951,"20":-0.22876204550266266,"21":-0.195747971534729,"22":-0.245035782456398,"23":0.03989463299512863,"24":-0.012328804470598698,"25":-0.02024693600833416,"26":0.16268901526927948,"27":-0.2974552512168884,"28":0.11023629456758499,"29":-0.0353398434817791,"30":-0.02927640825510025,"31":0.16533951461315155,"32":0.12370369583368301,"33":-0.2079557627439499,"34":0.05461760237812996,"35":-0.17468850314617157,"36":-0.020704450085759163,"37":-0.04606761783361435,"38":0.015597375109791756,"39":-0.22238188982009888,"40":0.049094997346401215,"41":0.08338554948568344,"42":-0.1838509738445282,"43":-0.052813779562711716,"44":-0.1140785962343216,"45":0.11456745117902756,"46":-0.03916531428694725,"47":0.0027516798581928015,"48":0.03266725689172745,"49":-0.04690813645720482,"50":0.10619792342185974,"51":-0.12159675359725952,"52":-0.16151757538318634,"53":-0.09671396017074585,"54":0.023133495822548866,"55":-0.17538230121135712,"56":-0.23889702558517456,"57":0.011841394007205963,"58":0.1939973533153534,"59":-0.14270822703838348,"60":0.06751891225576401,"61":-0.15990164875984192,"62":-0.19657491147518158,"63":-0.05186547338962555,"64":-0.08075950294733047,"65":0.1444181203842163,"66":-0.06645465642213821,"67":-0.19611671566963196,"68":-0.13425099849700928,"69":0.07038373500108719,"70":-0.21606498956680298,"71":-0.044019751250743866,"72":0.06202669441699982,"73":-0.049560774117708206,"74":0.14527742564678192,"75":0.1935494840145111,"76":0.10603424161672592,"77":0.0761590451002121,"78":-0.03947219252586365,"79":-0.11538303643465042,"80":-0.18168199062347412,"81":0.1300954520702362,"82":0.0853976234793663,"83":0.1595282256603241,"84":-0.13527323305606842,"85":-0.01724785938858986,"86":-0.10028322041034698,"87":0.16801142692565918,"88":0.08948159217834473,"89":0.1433456391096115}},"13":{"bias":-0.17745313048362732,"weights":{"0":0.17079287767410278,"1":-0.04102792963385582,"2":-0.0784788727760315,"3":-0.05387914925813675,"4":-0.06033477559685707,"5":0.14993418753147125,"6":-0.13191014528274536,"7":-0.3299994468688965,"8":-0.17114178836345673,"9":-0.3764840066432953,"10":-0.33512255549430847,"11":-0.3806283473968506,"12":-0.3322334289550781,"13":-0.2701708674430847,"14":-0.2810048460960388,"15":0.3943241536617279,"16":0.19075079262256622,"17":0.39131054282188416,"18":-0.08744155615568161,"19":0.23547175526618958,"20":-0.036476749926805496,"21":-0.05971958115696907,"22":0.042692527174949646,"23":0.12627409398555756,"24":-0.017388349398970604,"25":0.001552277710288763,"26":-0.0027042413130402565,"27":0.40892133116722107,"28":0.13799422979354858,"29":-0.037094034254550934,"30":0.18974418938159943,"31":-0.02108006179332733,"32":0.22381415963172913,"33":0.2427252233028412,"34":0.2390788048505783,"35":0.1604478657245636,"36":0.18907971680164337,"37":-0.04958908259868622,"38":0.0653652772307396,"39":0.1711869239807129,"40":-0.08086089044809341,"41":0.013627324253320694,"42":-0.1285960078239441,"43":0.1794423907995224,"44":0.18344266712665558,"45":0.03245002403855324,"46":-0.002690052380785346,"47":-0.1788591891527176,"48":0.14032204449176788,"49":-0.12179034948348999,"50":-0.1226654052734375,"51":0.1393352448940277,"52":0.009760245680809021,"53":-0.07018035650253296,"54":-0.1442444622516632,"55":0.14376172423362732,"56":-0.007052171044051647,"57":0.0028427329380065203,"58":-0.11946211755275726,"59":0.21846257150173187,"60":-0.07768569886684418,"61":-0.06845128536224365,"62":0.06820632517337799,"63":-0.03552180901169777,"64":0.22455167770385742,"65":-0.00032054411713033915,"66":0.1647583395242691,"67":0.12595337629318237,"68":-0.05931911617517471,"69":0.10789833217859268,"70":0.04589845985174179,"71":0.06760725378990173,"72":0.13383398950099945,"73":-0.11730162054300308,"74":0.01670866645872593,"75":-0.016488326713442802,"76":-0.004731900058686733,"77":0.016814803704619408,"78":0.22450298070907593,"79":0.1916053295135498,"80":-0.1692478507757187,"81":0.06794944405555725,"82":0.08909725397825241,"83":-0.004034420475363731,"84":-0.1347210705280304,"85":-0.15886978805065155,"86":-0.005108179524540901,"87":-0.11304197460412979,"88":-0.1515401005744934,"89":-0.09111946821212769}},"14":{"bias":-0.22214792668819427,"weights":{"0":-0.07730159908533096,"1":-0.061061520129442215,"2":-0.14285893738269806,"3":-0.18707115948200226,"4":-0.17161104083061218,"5":0.06708678603172302,"6":-0.16805115342140198,"7":-0.10358155518770218,"8":0.047869764268398285,"9":0.0961257666349411,"10":-0.008401988074183464,"11":0.2247389703989029,"12":-0.11404411494731903,"13":0.11560572683811188,"14":-0.05036330968141556,"15":-0.2903398871421814,"16":-0.11831565946340561,"17":-0.17916426062583923,"18":0.11176970601081848,"19":-0.007434583269059658,"20":-0.12091930955648422,"21":0.09804883599281311,"22":0.053545258939266205,"23":0.16493017971515656,"24":0.181627094745636,"25":-0.023693092167377472,"26":-0.0228361114859581,"27":0.008995423093438148,"28":-0.17829561233520508,"29":-0.18257126212120056,"30":-0.1515495777130127,"31":0.02491539530456066,"32":0.04038260132074356,"33":0.13953447341918945,"34":0.11944548785686493,"35":-0.19998422265052795,"36":-0.17027772963047028,"37":-0.2019636034965515,"38":0.07242236286401749,"39":0.14794467389583588,"40":-0.030375247821211815,"41":-0.10287046432495117,"42":-0.1747148483991623,"43":0.140041321516037,"44":-0.08132512122392654,"45":0.1406133472919464,"46":0.1116948053240776,"47":0.15526539087295532,"48":-0.07700518518686295,"49":-0.17832642793655396,"50":0.09393873065710068,"51":0.06481422483921051,"52":0.07173306494951248,"53":0.047535400837659836,"54":0.1520644575357437,"55":0.06387905776500702,"56":0.12905731797218323,"57":-0.0758683979511261,"58":-0.06344233453273773,"59":-0.1374235600233078,"60":-0.013614087365567684,"61":-0.144242063164711,"62":-0.01455644890666008,"63":-0.046017199754714966,"64":-0.032209452241659164,"65":0.054975081235170364,"66":0.09621085226535797,"67":0.15618778765201569,"68":-0.011239754036068916,"69":-0.07866460829973221,"70":0.0751519650220871,"71":-0.09108031541109085,"72":-0.05244538560509682,"73":0.07375682890415192,"74":0.062240034341812134,"75":-0.09060658514499664,"76":0.17655062675476074,"77":-0.12337936460971832,"78":0.13039951026439667,"79":-0.12222341448068619,"80":0.0768609419465065,"81":0.18921570479869843,"82":-0.18423235416412354,"83":0.08119867742061615,"84":-0.0928199514746666,"85":-0.08479095995426178,"86":-0.026746850460767746,"87":-0.13954497873783112,"88":0.1938255876302719,"89":-0.17002764344215393}},"15":{"bias":-0.012452596798539162,"weights":{"0":0.19027525186538696,"1":0.1682039052248001,"2":-0.11246134340763092,"3":0.06121451035141945,"4":-0.042839452624320984,"5":-0.12808986008167267,"6":0.09562331438064575,"7":-0.06076608598232269,"8":-0.24337568879127502,"9":-0.10127762705087662,"10":0.06442540884017944,"11":0.1173318475484848,"12":0.05545620992779732,"13":0.0697665810585022,"14":-0.21815195679664612,"15":0.18216019868850708,"16":-0.018683668226003647,"17":-0.048140622675418854,"18":0.03571627289056778,"19":0.031003085896372795,"20":0.15691465139389038,"21":0.1206308901309967,"22":0.2092815786600113,"23":-0.18302969634532928,"24":0.13209711015224457,"25":0.17968855798244476,"26":0.05400501564145088,"27":0.0628662258386612,"28":0.20319853723049164,"29":0.0472588948905468,"30":-0.07696636021137238,"31":0.08200328052043915,"32":0.1060931459069252,"33":0.03293465077877045,"34":-0.06451474130153656,"35":-0.11444325745105743,"36":0.16345779597759247,"37":0.20981036126613617,"38":0.13816224038600922,"39":-0.1560613363981247,"40":0.1798584908246994,"41":0.13561363518238068,"42":-0.18694858253002167,"43":0.15194043517112732,"44":-0.17918504774570465,"45":-0.12991026043891907,"46":-0.16971080005168915,"47":0.15670087933540344,"48":-0.1871778666973114,"49":0.09091763198375702,"50":0.1164744421839714,"51":-0.036058466881513596,"52":0.028423825278878212,"53":0.11298180371522903,"54":0.07603815197944641,"55":0.05935743823647499,"56":0.2050015926361084,"57":0.11507806926965714,"58":-0.09355425834655762,"59":0.038904882967472076,"60":-0.055688414722681046,"61":0.026352040469646454,"62":0.08099406212568283,"63":0.17859824001789093,"64":-0.18864773213863373,"65":-0.029674336314201355,"66":0.010943100787699223,"67":0.19393089413642883,"68":-0.06997750699520111,"69":0.036507077515125275,"70":-0.08262111991643906,"71":0.02798490598797798,"72":0.08267247676849365,"73":0.04740885645151138,"74":-0.015428928658366203,"75":-0.17881648242473602,"76":-0.12633116543293,"77":0.09017220139503479,"78":-0.10557083040475845,"79":0.1753084808588028,"80":0.10676179081201553,"81":0.0652468353509903,"82":-0.15735359489917755,"83":-0.1906968355178833,"84":0.12032043188810349,"85":-0.04023502394556999,"86":-0.001316130394116044,"87":0.033789344131946564,"88":0.14515435695648193,"89":0.08072476089000702}},"16":{"bias":-0.13058866560459137,"weights":{"0":-0.18614771962165833,"1":-0.13667622208595276,"2":-0.1762879341840744,"3":-0.1498088389635086,"4":0.11935801059007645,"5":0.07341226935386658,"6":-0.18843543529510498,"7":0.017687460407614708,"8":0.15799598395824432,"9":0.28591352701187134,"10":0.030460799112915993,"11":0.2708717882633209,"12":0.1866942197084427,"13":0.31479015946388245,"14":0.032423894852399826,"15":-0.28830865025520325,"16":-0.16813482344150543,"17":-0.20176495611667633,"18":-0.14075815677642822,"19":-0.09974313527345657,"20":-0.03569651395082474,"21":-0.020081020891666412,"22":0.029591361060738564,"23":0.08507690578699112,"24":0.13486965000629425,"25":-0.21613095700740814,"26":-0.1678881198167801,"27":-0.2580791413784027,"28":-0.17418405413627625,"29":-0.2229306697845459,"30":0.04428458958864212,"31":-0.006325682159513235,"32":0.012996267527341843,"33":-0.20408488810062408,"34":-0.1191520020365715,"35":-0.03507598862051964,"36":0.029037753120064735,"37":-0.023026904091238976,"38":-0.20046257972717285,"39":0.045530710369348526,"40":0.1965956687927246,"41":-0.05166345462203026,"42":0.15001411736011505,"43":0.06444764137268066,"44":-0.09471678733825684,"45":0.0013767838245257735,"46":0.1568625569343567,"47":-0.1482071578502655,"48":-0.12844453752040863,"49":0.16759318113327026,"50":0.03992069140076637,"51":-0.042749661952257156,"52":-0.010894534178078175,"53":0.08424320816993713,"54":0.11183984577655792,"55":-0.08672899752855301,"56":-0.16500715911388397,"57":-0.21216483414173126,"58":-0.09460491687059402,"59":-0.12482765316963196,"60":0.1220611110329628,"61":0.1475379317998886,"62":0.05758558586239815,"63":0.08285076171159744,"64":-0.15729781985282898,"65":-0.13929429650306702,"66":0.08084967732429504,"67":-0.1517713963985443,"68":0.06819147616624832,"69":-0.12546412646770477,"70":0.017954573035240173,"71":0.14906716346740723,"72":-0.04660206288099289,"73":0.1998075246810913,"74":0.15126706659793854,"75":0.13811513781547546,"76":-0.19201676547527313,"77":0.16854584217071533,"78":-0.13981322944164276,"79":-0.11870510876178741,"80":0.1688503921031952,"81":-0.12120045721530914,"82":0.01691988669335842,"83":0.10546143352985382,"84":-0.020963143557310104,"85":-0.04012632742524147,"86":-0.0024208510294556618,"87":-0.13892115652561188,"88":-0.16191579401493073,"89":-0.11246148496866226}},"17":{"bias":-0.05168568342924118,"weights":{"0":0.04871676489710808,"1":-0.03469764068722725,"2":-0.11426356434822083,"3":0.18090389668941498,"4":-0.12943342328071594,"5":-0.05558023601770401,"6":0.09609761834144592,"7":-0.06542547047138214,"8":-0.05859574303030968,"9":-0.10296900570392609,"10":-0.0464981310069561,"11":-0.2373875230550766,"12":-0.17744997143745422,"13":0.1628112494945526,"14":-0.0953381285071373,"15":-0.057082027196884155,"16":0.0022427821531891823,"17":0.18742723762989044,"18":-0.11970853060483932,"19":0.017924821004271507,"20":-0.1319885551929474,"21":-0.11372985690832138,"22":0.16855421662330627,"23":0.01919490657746792,"24":-0.1353207230567932,"25":0.07414216548204422,"26":0.12459272891283035,"27":-0.15496602654457092,"28":0.1555909663438797,"29":0.13647855818271637,"30":0.040777627378702164,"31":-0.18396735191345215,"32":0.055932387709617615,"33":0.13368667662143707,"34":-0.12645433843135834,"35":0.10714046657085419,"36":0.11348581314086914,"37":-0.061698224395513535,"38":0.0821673646569252,"39":0.18439246714115143,"40":-0.09064538776874542,"41":-0.19056031107902527,"42":-0.110441654920578,"43":-0.18256062269210815,"44":-0.009661464020609856,"45":0.1753637045621872,"46":-0.009267343208193779,"47":-0.12788794934749603,"48":0.04894396662712097,"49":0.14384418725967407,"50":-0.03484288975596428,"51":0.17626452445983887,"52":-0.15496861934661865,"53":-0.05152266472578049,"54":-0.17248080670833588,"55":-0.05984130874276161,"56":-0.16267642378807068,"57":-0.006527415942400694,"58":0.036281559616327286,"59":0.048258040100336075,"60":-0.138694167137146,"61":0.18063406646251678,"62":-0.059215109795331955,"63":-0.1640714704990387,"64":0.16901005804538727,"65":-0.054474104195833206,"66":0.18435300886631012,"67":-0.19177915155887604,"68":-0.10961949825286865,"69":0.19310492277145386,"70":-0.12858113646507263,"71":0.17531953752040863,"72":0.08508557826280594,"73":0.1459745466709137,"74":-0.11453601717948914,"75":0.14725184440612793,"76":-0.1040724366903305,"77":-0.067416712641716,"78":0.13427649438381195,"79":-0.14500990509986877,"80":0.032981839030981064,"81":0.17598387598991394,"82":0.012786400504410267,"83":-0.051573093980550766,"84":-0.148701012134552,"85":-0.10942833870649338,"86":0.027422981336712837,"87":-0.037949997931718826,"88":-0.09680597484111786,"89":0.19800138473510742}},"18":{"bias":-0.08753202110528946,"weights":{"0":-0.00703491922467947,"1":0.09719786047935486,"2":0.10698498785495758,"3":-0.14467757940292358,"4":0.07786844670772552,"5":0.14471928775310516,"6":0.21960562467575073,"7":-0.10697940737009048,"8":0.023917950689792633,"9":-0.23608745634555817,"10":-0.2228705734014511,"11":-0.3013051748275757,"12":-0.034850891679525375,"13":-0.042021024972200394,"14":-0.26442092657089233,"15":0.190032497048378,"16":0.3050691485404968,"17":0.2653484642505646,"18":-0.16815827786922455,"19":-0.13464133441448212,"20":0.2501620352268219,"21":0.15798130631446838,"22":0.21649639308452606,"23":0.1423833817243576,"24":-0.14363323152065277,"25":0.1173369511961937,"26":-0.045804280787706375,"27":0.33954328298568726,"28":0.09024862945079803,"29":0.1648576259613037,"30":0.08727270364761353,"31":-0.14382284879684448,"32":-0.07235770672559738,"33":0.09229650348424911,"34":-0.0741703137755394,"35":0.18456964194774628,"36":0.09727155417203903,"37":0.09898339211940765,"38":-0.11063987761735916,"39":-0.08726170659065247,"40":-0.14248274266719818,"41":0.04527450352907181,"42":-0.07511278241872787,"43":-0.1479865163564682,"44":-0.011335151270031929,"45":0.18122261762619019,"46":-0.002899437677115202,"47":0.0833917036652565,"48":-0.18621090054512024,"49":-0.0770341008901596,"50":0.09537465125322342,"51":0.01132401917129755,"52":0.012432733550667763,"53":-0.08829140663146973,"54":0.14008203148841858,"55":0.03377627208828926,"56":0.17728786170482635,"57":-0.018294543027877808,"58":-0.09903211146593094,"59":0.10392570495605469,"60":0.09010253846645355,"61":0.054394807666540146,"62":-0.06074606999754906,"63":0.14447204768657684,"64":-0.16839607059955597,"65":0.006222182419151068,"66":-0.08561418205499649,"67":0.09802115708589554,"68":0.029834307730197906,"69":-0.10396641492843628,"70":0.19874919950962067,"71":-0.1885213404893875,"72":-0.12900826334953308,"73":0.09501123428344727,"74":0.05177205801010132,"75":0.18675953149795532,"76":-0.1107797920703888,"77":-0.0018200951162725687,"78":0.11012744903564453,"79":-0.036967337131500244,"80":0.1660347729921341,"81":0.1433684229850769,"82":0.1572105586528778,"83":0.10691338777542114,"84":0.11344094574451447,"85":-0.14947490394115448,"86":0.12146580219268799,"87":-0.07954348623752594,"88":-0.14528311789035797,"89":0.2180335372686386}},"19":{"bias":-0.019417624920606613,"weights":{"0":0.0038980699609965086,"1":-0.10577814280986786,"2":-0.02665991708636284,"3":-0.09104859083890915,"4":0.14881595969200134,"5":-0.04702713340520859,"6":0.07113249599933624,"7":-0.15097518265247345,"8":-0.06091779097914696,"9":-0.40367233753204346,"10":-0.2620584964752197,"11":-0.3326246738433838,"12":-0.20203745365142822,"13":-0.05650686100125313,"14":-0.2525087296962738,"15":0.4614698588848114,"16":0.4356103241443634,"17":0.2845193147659302,"18":0.10269728302955627,"19":0.2228548526763916,"20":0.10562840104103088,"21":0.09771953523159027,"22":0.13643617928028107,"23":0.1569531112909317,"24":0.17053040862083435,"25":0.06778928637504578,"26":0.04927350953221321,"27":0.1330997496843338,"28":0.2772272527217865,"29":0.18577827513217926,"30":0.1989860236644745,"31":0.1934838891029358,"32":0.1905779242515564,"33":0.24129433929920197,"34":-0.08476439863443375,"35":-0.06520897895097733,"36":-0.07904935628175735,"37":0.21351715922355652,"38":0.11173734813928604,"39":-0.07146857678890228,"40":0.14311189949512482,"41":0.008622143417596817,"42":-0.07881412655115128,"43":-0.16914209723472595,"44":0.11702102422714233,"45":-0.02687346562743187,"46":-0.17883528769016266,"47":-0.12304486334323883,"48":-0.08312994241714478,"49":-0.08579068630933762,"50":0.15105770528316498,"51":-0.05225732550024986,"52":-0.1810976266860962,"53":0.05342711880803108,"54":-0.14310556650161743,"55":0.08386102318763733,"56":-0.06995631754398346,"57":0.18053723871707916,"58":0.037119798362255096,"59":-0.11507974565029144,"60":0.24616949260234833,"61":0.0731206163764,"62":-0.03393849730491638,"63":0.12849672138690948,"64":-0.02241538092494011,"65":-0.035973336547613144,"66":0.14037784934043884,"67":-0.010903029702603817,"68":0.15111060440540314,"69":-0.050683069974184036,"70":-0.04960513859987259,"71":0.1435156911611557,"72":0.16713877022266388,"73":0.11911343038082123,"74":-0.16953463852405548,"75":-0.05607636272907257,"76":-0.07041597366333008,"77":0.038297638297080994,"78":0.20585493743419647,"79":-0.11617597192525864,"80":-0.004497174639254808,"81":0.15739043056964874,"82":0.16079871356487274,"83":-0.11816933751106262,"84":0.16418053209781647,"85":0.07189773768186569,"86":0.1885746270418167,"87":-0.16065570712089539,"88":-0.17591845989227295,"89":-0.03327462822198868}},"20":{"bias":0.0125531991943717,"weights":{"0":-0.02809588983654976,"1":0.05074875429272652,"2":-0.07510154694318771,"3":0.010284781455993652,"4":-0.14590613543987274,"5":0.23231185972690582,"6":0.1940809041261673,"7":-0.6205440163612366,"8":-0.33320289850234985,"9":-0.4611600637435913,"10":-0.5323519706726074,"11":-0.4166603088378906,"12":-0.4895998537540436,"13":-0.1896531730890274,"14":-0.2393050640821457,"15":0.6364898085594177,"16":0.47901663184165955,"17":0.3119339048862457,"18":0.2483302354812622,"19":-0.10394186526536942,"20":0.12557929754257202,"21":-0.08189060539007187,"22":0.3194558918476105,"23":0.16918523609638214,"24":0.20064130425453186,"25":0.31057316064834595,"26":-0.08186044543981552,"27":0.3072308599948883,"28":0.06470969319343567,"29":0.2974797189235687,"30":-0.10408126562833786,"31":0.19030725955963135,"32":0.13176210224628448,"33":0.253252238035202,"34":0.3087708652019501,"35":0.25515982508659363,"36":0.0968351885676384,"37":-0.0030403470154851675,"38":0.13871905207633972,"39":0.061031945049762726,"40":0.16426058113574982,"41":-0.10511728376150131,"42":0.028518032282590866,"43":-0.03555770218372345,"44":0.15108337998390198,"45":-0.06428201496601105,"46":-0.1652180701494217,"47":-0.12889902293682098,"48":0.03656788542866707,"49":-0.1351381093263626,"50":0.16203059256076813,"51":0.199374720454216,"52":-0.03021581657230854,"53":0.2082192748785019,"54":0.053901221603155136,"55":0.1557253748178482,"56":0.23090846836566925,"57":0.17995159327983856,"58":-0.06181968376040459,"59":0.23466046154499054,"60":0.15537051856517792,"61":-0.12580399215221405,"62":0.045885466039180756,"63":0.04016649350523949,"64":0.16951584815979004,"65":-0.06572866439819336,"66":0.17631077766418457,"67":0.001643365016207099,"68":-0.12483673542737961,"69":-0.1016242653131485,"70":-0.12617014348506927,"71":0.05696007236838341,"72":0.01516084372997284,"73":-0.1550007164478302,"74":0.145551860332489,"75":0.11560351401567459,"76":-0.17778928577899933,"77":-0.11121722310781479,"78":0.1943700909614563,"79":0.2156239151954651,"80":-0.08431556820869446,"81":-0.045419372618198395,"82":0.054843682795763016,"83":-0.05698046833276749,"84":0.1004047617316246,"85":0.06391190737485886,"86":-0.013277432881295681,"87":0.18875114619731903,"88":-0.16261129081249237,"89":0.0804046094417572}},"21":{"bias":0.042118530720472336,"weights":{"0":0.015471127815544605,"1":-0.0011216452112421393,"2":-0.2810307443141937,"3":0.051184844225645065,"4":-0.15423156321048737,"5":0.10705818980932236,"6":-0.2918601334095001,"7":0.6893929243087769,"8":0.46319279074668884,"9":0.7347986698150635,"10":0.879500687122345,"11":0.6880955696105957,"12":0.459127813577652,"13":0.3586074113845825,"14":0.6213992834091187,"15":-0.9108976125717163,"16":-0.9787525534629822,"17":-0.8490456938743591,"18":-0.23105397820472717,"19":-0.028045501559972763,"20":-0.15072481334209442,"21":-0.23737558722496033,"22":-0.38547658920288086,"23":-0.19404692947864532,"24":-0.3405941128730774,"25":-0.07514654099941254,"26":-0.2337099313735962,"27":-0.30838263034820557,"28":-0.2253514528274536,"29":-0.11280649900436401,"30":-0.281613290309906,"31":-0.21808843314647675,"32":-0.23344169557094574,"33":-0.6603995561599731,"34":-0.17346937954425812,"35":-0.020758038386702538,"36":-0.23352377116680145,"37":-0.2496856302022934,"38":-0.21297785639762878,"39":-0.27970609068870544,"40":-0.12635429203510284,"41":0.1671479195356369,"42":-0.02506323717534542,"43":0.019910726696252823,"44":-0.03884848207235336,"45":-0.07225679606199265,"46":0.10776133090257645,"47":0.1357150822877884,"48":-0.08477077633142471,"49":-0.19981250166893005,"50":-0.07510624080896378,"51":-0.0012112059630453587,"52":-0.20861032605171204,"53":0.023524433374404907,"54":0.02729780413210392,"55":-0.1200537458062172,"56":-0.4268142879009247,"57":-0.1633710116147995,"58":0.1112876608967781,"59":-0.24965718388557434,"60":0.007229756098240614,"61":-0.02974449284374714,"62":0.011916312389075756,"63":0.15275144577026367,"64":0.08473201096057892,"65":0.14111270010471344,"66":-0.036503519862890244,"67":-0.11867637932300568,"68":0.07838615775108337,"69":-0.10812097787857056,"70":-0.06078165024518967,"71":-0.16665521264076233,"72":0.11220408231019974,"73":-0.11698989570140839,"74":-0.08724398910999298,"75":-0.06447814404964447,"76":-0.1487317830324173,"77":0.07303348183631897,"78":-0.523597002029419,"79":-0.23748651146888733,"80":-0.050371572375297546,"81":-0.11032818257808685,"82":-0.13979379832744598,"83":0.04489467665553093,"84":0.17682969570159912,"85":0.14979827404022217,"86":0.1604166030883789,"87":0.14301574230194092,"88":-0.18110410869121552,"89":-0.02580365352332592}},"22":{"bias":0.007932987995445728,"weights":{"0":0.015647675842046738,"1":0.1287696212530136,"2":0.18237031996250153,"3":0.00020932858751621097,"4":0.135309100151062,"5":0.1729104369878769,"6":-0.03173245117068291,"7":-0.004793823231011629,"8":-0.008865983225405216,"9":0.22088304162025452,"10":0.10835734754800797,"11":0.008285420015454292,"12":-0.043087635189294815,"13":-0.10457199811935425,"14":0.18255187571048737,"15":0.002509753918275237,"16":-0.16515588760375977,"17":0.051972050219774246,"18":-0.08633152395486832,"19":-0.2028476744890213,"20":-0.06725338846445084,"21":0.15713801980018616,"22":-0.12647341191768646,"23":-0.18487873673439026,"24":0.03742460161447525,"25":0.0014657526044175029,"26":0.1023741140961647,"27":0.02346671186387539,"28":0.16651825606822968,"29":0.039911478757858276,"30":-0.15452933311462402,"31":-0.0029123348649591208,"32":0.011434467509388924,"33":-0.17036861181259155,"34":-0.012956042774021626,"35":-0.030973371118307114,"36":-0.0772041454911232,"37":0.013441231101751328,"38":-0.18418513238430023,"39":0.0018652903381735086,"40":0.12950803339481354,"41":0.17837820947170258,"42":0.1227138414978981,"43":0.1474851816892624,"44":0.0372028611600399,"45":0.15611805021762848,"46":0.1980239897966385,"47":-0.023778751492500305,"48":-0.0747281014919281,"49":-0.15907669067382812,"50":-0.10165096819400787,"51":0.13689546287059784,"52":-0.1704990118741989,"53":0.18856976926326752,"54":0.022491859272122383,"55":-0.1535254865884781,"56":0.048138707876205444,"57":0.16762900352478027,"58":0.15692028403282166,"59":0.15080924332141876,"60":0.15322600305080414,"61":-0.09429846704006195,"62":0.09369706362485886,"63":0.048933375626802444,"64":-0.119317427277565,"65":0.13605773448944092,"66":0.07577840983867645,"67":-0.10653789341449738,"68":0.022897986695170403,"69":-0.06492087244987488,"70":-0.07259631901979446,"71":-0.17175601422786713,"72":0.10967814177274704,"73":-0.09916099160909653,"74":0.06624851375818253,"75":-0.16435232758522034,"76":-0.023067498579621315,"77":0.18984614312648773,"78":-0.1501510888338089,"79":-0.04327129200100899,"80":0.06207134947180748,"81":0.14874690771102905,"82":-0.101492740213871,"83":0.19288311898708344,"84":0.16587570309638977,"85":-0.08609028160572052,"86":0.012521941214799881,"87":-0.018338028341531754,"88":0.00290126446634531,"89":0.07798659801483154}},"23":{"bias":-0.13164319097995758,"weights":{"0":0.19587871432304382,"1":0.14692029356956482,"2":0.1266666203737259,"3":-0.11014948040246964,"4":-0.1819494515657425,"5":0.007616821210831404,"6":0.20304426550865173,"7":-0.43170231580734253,"8":-0.32186663150787354,"9":-0.3920292556285858,"10":-0.615164577960968,"11":-0.43632909655570984,"12":-0.48665568232536316,"13":-0.352922260761261,"14":-0.32503876090049744,"15":0.435822993516922,"16":0.6031724810600281,"17":0.5281366109848022,"18":0.02151389606297016,"19":0.14371350407600403,"20":-0.04955505579710007,"21":-0.07500644028186798,"22":0.11244892328977585,"23":0.2354709655046463,"24":0.2437349557876587,"25":-0.04259660094976425,"26":0.09389463067054749,"27":0.4022131860256195,"28":0.24042324721813202,"29":0.17164616286754608,"30":0.19577904045581818,"31":0.1178426593542099,"32":-0.08441312611103058,"33":0.5669390559196472,"34":0.2546389698982239,"35":0.11780862510204315,"36":0.021179120987653732,"37":-0.0028684719000011683,"38":-0.15970665216445923,"39":0.02668897435069084,"40":-0.02795764058828354,"41":0.09117531776428223,"42":-0.034470222890377045,"43":-0.08869098126888275,"44":-0.0646941065788269,"45":0.007131896913051605,"46":-0.16802825033664703,"47":0.024713870137929916,"48":-0.10651516169309616,"49":0.07097963243722916,"50":-0.06480330228805542,"51":-0.18664324283599854,"52":-0.11683982610702515,"53":0.15036137402057648,"54":0.0755031406879425,"55":0.277274489402771,"56":0.2455294281244278,"57":0.328725129365921,"58":0.10167567431926727,"59":0.04862778261303902,"60":-0.02798384428024292,"61":0.03032880835235119,"62":0.10169108957052231,"63":0.19622072577476501,"64":0.013100836426019669,"65":0.08897878229618073,"66":-0.013220754452049732,"67":0.0981346070766449,"68":-0.15129823982715607,"69":-0.13981899619102478,"70":-0.05444909259676933,"71":-0.030988473445177078,"72":0.11397450417280197,"73":-0.052628371864557266,"74":-0.09679065644741058,"75":0.11449532955884933,"76":-0.06789227575063705,"77":0.15389524400234222,"78":0.19531944394111633,"79":-0.05563809722661972,"80":0.05010731890797615,"81":-0.08173643797636032,"82":0.02555987983942032,"83":0.082163967192173,"84":-0.08390526473522186,"85":0.06745680421590805,"86":-0.04228036105632782,"87":-0.13675230741500854,"88":-0.060065045952796936,"89":-0.0596715584397316}},"24":{"bias":0.021137330681085587,"weights":{"0":-0.018918940797448158,"1":0.12316432595252991,"2":-0.1264282912015915,"3":0.14055004715919495,"4":0.03209961578249931,"5":-0.06209063157439232,"6":-0.03542889282107353,"7":0.10386614501476288,"8":-0.1373308300971985,"9":-0.21161220967769623,"10":0.10739743709564209,"11":-0.09210124611854553,"12":-0.10184543579816818,"13":0.16579872369766235,"14":0.11388054490089417,"15":-0.024488065391778946,"16":-0.036717742681503296,"17":0.15562619268894196,"18":0.19837841391563416,"19":0.018398238345980644,"20":-0.03473036363720894,"21":0.0284890066832304,"22":0.07731033861637115,"23":-0.006440312601625919,"24":-0.011445405893027782,"25":0.07499659061431885,"26":0.00039191966061480343,"27":0.17732356488704681,"28":0.08521419018507004,"29":0.04839646816253662,"30":0.1899867206811905,"31":-0.08217176795005798,"32":-0.058411192148923874,"33":0.005161212291568518,"34":-0.13435149192810059,"35":-0.18972598016262054,"36":0.003553002839908004,"37":-0.18459485471248627,"38":-0.0818699523806572,"39":0.18927356600761414,"40":0.03048841282725334,"41":-0.011361980810761452,"42":0.03144708648324013,"43":-0.17940868437290192,"44":-0.13978751003742218,"45":-0.0935656949877739,"46":-0.12925276160240173,"47":-0.03659775108098984,"48":-0.13728031516075134,"49":0.19791004061698914,"50":0.04669928178191185,"51":-0.003969643730670214,"52":-0.15795546770095825,"53":-0.09495113790035248,"54":-0.14217481017112732,"55":-0.06227594614028931,"56":-0.10289821773767471,"57":0.0818927064538002,"58":-0.0838046669960022,"59":0.1710675060749054,"60":-0.01767573319375515,"61":-0.105424664914608,"62":0.01880429871380329,"63":0.08480816334486008,"64":-0.12417184561491013,"65":0.14286567270755768,"66":0.08011956512928009,"67":-0.1593831330537796,"68":0.025864342227578163,"69":0.15942265093326569,"70":-0.031847480684518814,"71":-0.11808037012815475,"72":-0.08898760378360748,"73":-0.04157805070281029,"74":0.17188842594623566,"75":-0.11887197941541672,"76":0.10203660279512405,"77":-0.15429025888442993,"78":0.14358501136302948,"79":0.03675911948084831,"80":0.08872516453266144,"81":-0.18591274321079254,"82":0.17258396744728088,"83":0.08769635856151581,"84":0.16795197129249573,"85":-0.13770875334739685,"86":0.06224881857633591,"87":-0.1549200713634491,"88":-0.06726673245429993,"89":-0.16299235820770264}},"25":{"bias":0.11980370432138443,"weights":{"0":-0.14962579309940338,"1":-0.03961864113807678,"2":-0.10510518401861191,"3":0.0831403136253357,"4":0.025721900165081024,"5":0.0817398950457573,"6":-0.018684497103095055,"7":0.27074337005615234,"8":0.05889325216412544,"9":0.30053040385246277,"10":-0.04269628971815109,"11":0.005201335530728102,"12":-0.03592600300908089,"13":0.17914606630802155,"14":-0.061134420335292816,"15":-0.3411484956741333,"16":-0.21701310575008392,"17":-0.1439613550901413,"18":0.058009885251522064,"19":-0.1992746889591217,"20":0.047425806522369385,"21":0.14953464269638062,"22":-0.04734081029891968,"23":0.04166126996278763,"24":0.16025333106517792,"25":0.08584822714328766,"26":0.16382047533988953,"27":-0.08993543684482574,"28":0.11751015484333038,"29":-0.17937776446342468,"30":-0.1121722161769867,"31":-0.07003600150346756,"32":-0.040819454938173294,"33":0.050801489502191544,"34":-0.06312431395053864,"35":0.17990070581436157,"36":-0.06395911425352097,"37":-0.060988541692495346,"38":0.013307585380971432,"39":0.11193303763866425,"40":-0.06185223162174225,"41":0.042242348194122314,"42":0.08236418664455414,"43":-0.05325145274400711,"44":-0.06411438435316086,"45":-0.14351925253868103,"46":-0.004983259830623865,"47":0.17744062840938568,"48":-0.18774598836898804,"49":-0.16255421936511993,"50":-0.046150583773851395,"51":-0.17189277708530426,"52":-0.11945997923612595,"53":0.12717165052890778,"54":0.15488268435001373,"55":-0.011264174245297909,"56":-0.18572261929512024,"57":-0.0736302062869072,"58":-0.022379212081432343,"59":-0.08676239103078842,"60":0.11978168040513992,"61":-0.18871299922466278,"62":-0.0745532214641571,"63":0.03924081102013588,"64":0.13725514709949493,"65":0.08931170403957367,"66":0.013461066409945488,"67":0.13112777471542358,"68":-0.16353163123130798,"69":-0.02884550951421261,"70":-0.09724375605583191,"71":0.07175179570913315,"72":0.16462509334087372,"73":-0.03953597694635391,"74":0.0061125727370381355,"75":0.032128624618053436,"76":-0.015594369731843472,"77":0.10743755102157593,"78":0.07120493054389954,"79":-0.08449552208185196,"80":0.021103665232658386,"81":-0.01772996224462986,"82":0.09572888910770416,"83":0.16244761645793915,"84":0.007303501013666391,"85":-0.10993579030036926,"86":0.07577934861183167,"87":-0.010952699929475784,"88":-0.023995283991098404,"89":0.10076584666967392}},"26":{"bias":0.0470251590013504,"weights":{"0":-0.11841946840286255,"1":-0.0059837535955011845,"2":0.03162045404314995,"3":0.02598068304359913,"4":-0.17071236670017242,"5":-0.08049507439136505,"6":-0.15674743056297302,"7":-0.15254732966423035,"8":-0.2525239884853363,"9":-0.20948576927185059,"10":-0.5406826138496399,"11":-0.3781714141368866,"12":-0.3568018972873688,"13":-0.3220406174659729,"14":-0.11286747455596924,"15":0.3104110062122345,"16":0.18656609952449799,"17":0.3807526230812073,"18":-0.076755091547966,"19":0.040562234818935394,"20":0.12975874543190002,"21":0.20365436375141144,"22":0.21776343882083893,"23":-0.10754882544279099,"24":0.25900623202323914,"25":0.29185307025909424,"26":0.1787385791540146,"27":0.36640092730522156,"28":-0.02962203323841095,"29":0.18201325833797455,"30":0.038720838725566864,"31":0.03342476114630699,"32":-0.07803008705377579,"33":0.3939148783683777,"34":0.22883249819278717,"35":-0.025271639227867126,"36":0.05130567401647568,"37":-0.10845150053501129,"38":-0.02595883421599865,"39":-0.018594635650515556,"40":0.0036036872770637274,"41":-0.04240196943283081,"42":0.11972246319055557,"43":0.16707520186901093,"44":-0.015470185317099094,"45":-0.00490849232301116,"46":0.0969819650053978,"47":-0.05910203978419304,"48":-0.1424233764410019,"49":-0.022098682820796967,"50":-0.07631584256887436,"51":-0.05214976146817207,"52":-0.12915435433387756,"53":0.13219599425792694,"54":-0.016687337309122086,"55":0.17860880494117737,"56":-0.057809021323919296,"57":0.3264922499656677,"58":0.0035026906989514828,"59":0.14133571088314056,"60":0.19808845221996307,"61":0.02132510580122471,"62":-0.018341708928346634,"63":0.012751552276313305,"64":-0.06372570246458054,"65":0.06826160103082657,"66":-0.017254408448934555,"67":0.03189881891012192,"68":0.06611321866512299,"69":-0.08034896850585938,"70":-0.09624303877353668,"71":0.18957115709781647,"72":0.11715444922447205,"73":0.15612651407718658,"74":-0.01774456538259983,"75":0.11041855812072754,"76":0.18207044899463654,"77":-0.18202148377895355,"78":0.09392208606004715,"79":0.0891999825835228,"80":-0.13030540943145752,"81":0.2032546103000641,"82":0.16416440904140472,"83":0.02774001471698284,"84":0.09466970711946487,"85":-0.1504497528076172,"86":0.05498366802930832,"87":0.09080973267555237,"88":0.024558590725064278,"89":0.030825559049844742}},"27":{"bias":0.07087063789367676,"weights":{"0":0.10017425566911697,"1":0.12105727195739746,"2":0.05352414771914482,"3":0.04206157848238945,"4":-0.1925903856754303,"5":-0.032240867614746094,"6":-0.07481616735458374,"7":0.09779650717973709,"8":-0.009538166224956512,"9":0.22270531952381134,"10":-0.14571160078048706,"11":0.044439397752285004,"12":-0.06867922842502594,"13":-0.019873280078172684,"14":0.11823907494544983,"15":-0.005676571279764175,"16":-0.18814606964588165,"17":0.10003607720136642,"18":0.10512638837099075,"19":0.12456053495407104,"20":0.0005120535497553647,"21":-0.06119443476200104,"22":-0.033571455627679825,"23":0.045720625668764114,"24":-0.13426722586154938,"25":-0.005923580378293991,"26":0.15882696211338043,"27":0.10590097308158875,"28":0.11216717958450317,"29":-0.139457568526268,"30":-0.16823257505893707,"31":-0.03524564206600189,"32":-0.13792762160301208,"33":0.16351637244224548,"34":0.1381068080663681,"35":-0.08979229629039764,"36":-0.11008403450250626,"37":0.05293712764978409,"38":0.07485488802194595,"39":-0.042487699538469315,"40":0.013821166008710861,"41":-0.06714380532503128,"42":-0.03151977062225342,"43":0.0594785138964653,"44":-0.014417258091270924,"45":-0.059681374579668045,"46":-0.026622172445058823,"47":0.0968751534819603,"48":-0.17414698004722595,"49":0.010861366055905819,"50":0.10538341104984283,"51":0.058049850165843964,"52":0.04596659168601036,"53":0.0723082572221756,"54":0.13335824012756348,"55":0.04475795105099678,"56":0.15581141412258148,"57":0.009072460234165192,"58":-0.16315878927707672,"59":-0.06864762306213379,"60":-0.042097657918930054,"61":0.18381476402282715,"62":0.05833647772669792,"63":-0.010254325345158577,"64":-0.1267257034778595,"65":-0.12433310598134995,"66":0.08998078107833862,"67":-0.19525183737277985,"68":-0.11528290808200836,"69":-0.10406912863254547,"70":-0.14792399108409882,"71":0.08296814560890198,"72":0.09796362370252609,"73":0.19268599152565002,"74":-0.13965600728988647,"75":0.13810202479362488,"76":-0.0356019102036953,"77":0.0991845354437828,"78":0.1507551521062851,"79":0.12164090573787689,"80":0.14615830779075623,"81":0.1928669810295105,"82":-0.16405005753040314,"83":-0.17748846113681793,"84":-0.07431692630052567,"85":0.17573893070220947,"86":0.09033241868019104,"87":-0.013107511214911938,"88":-0.08534131944179535,"89":0.19117264449596405}},"28":{"bias":0.05854813754558563,"weights":{"0":-0.20776806771755219,"1":-0.06129264459013939,"2":0.13218016922473907,"3":0.07947833836078644,"4":-0.010955368168652058,"5":-0.22932769358158112,"6":-0.09516864269971848,"7":0.33520323038101196,"8":0.06853707879781723,"9":0.23475281894207,"10":0.5114853382110596,"11":0.21003054082393646,"12":0.24052372574806213,"13":0.06867439299821854,"14":0.3809140920639038,"15":-0.4980117082595825,"16":-0.509495198726654,"17":-0.432650625705719,"18":0.06562726199626923,"19":0.03670801594853401,"20":-0.01663239672780037,"21":0.12191104888916016,"22":-0.3081878125667572,"23":-0.17677681148052216,"24":-0.20293928682804108,"25":-0.1340479850769043,"26":-0.16373516619205475,"27":-0.24279603362083435,"28":-0.04298973083496094,"29":0.006473800167441368,"30":0.057707708328962326,"31":-0.09959432482719421,"32":0.11005926132202148,"33":-0.05924538895487785,"34":-0.005153540056198835,"35":0.03610870614647865,"36":-0.08741234987974167,"37":-0.1285926103591919,"38":0.1779753565788269,"39":-0.30660542845726013,"40":0.1269262582063675,"41":0.08696287125349045,"42":-0.03729190304875374,"43":-0.05172709748148918,"44":-0.04803747683763504,"45":-0.07854818552732468,"46":0.1652248501777649,"47":0.06581220030784607,"48":0.10705094039440155,"49":0.08905171602964401,"50":-0.07342421263456345,"51":-0.01994168385863304,"52":-0.18892325460910797,"53":0.1201324313879013,"54":0.1821560561656952,"55":-0.308165580034256,"56":-0.21723003685474396,"57":-0.21451732516288757,"58":0.023858146741986275,"59":-0.17928391695022583,"60":0.027784371748566628,"61":-0.12518545985221863,"62":-0.09093669801950455,"63":-0.08410533517599106,"64":0.02948935516178608,"65":-0.03200313821434975,"66":-0.05780394375324249,"67":-0.08553909510374069,"68":0.12550729513168335,"69":0.062554270029068,"70":-0.06675697863101959,"71":-0.15892834961414337,"72":0.01526099443435669,"73":0.03144624084234238,"74":-0.07109521329402924,"75":-0.038228340446949005,"76":-0.17509761452674866,"77":-0.1847105622291565,"78":-0.13402265310287476,"79":0.11058512330055237,"80":0.15246634185314178,"81":0.14998814463615417,"82":-0.002448724117130041,"83":0.00855665560811758,"84":-0.018633265048265457,"85":0.03208237886428833,"86":0.14017698168754578,"87":-0.08507993817329407,"88":-0.1306203007698059,"89":-0.08512600511312485}},"29":{"bias":-0.14608563482761383,"weights":{"0":0.12773875892162323,"1":0.18410418927669525,"2":-0.04626060277223587,"3":-0.051287323236465454,"4":-0.11645057052373886,"5":0.10813604295253754,"6":0.02235323004424572,"7":0.04336351156234741,"8":-0.028235582634806633,"9":0.18859143555164337,"10":-0.02085188217461109,"11":-0.029609233140945435,"12":0.16006430983543396,"13":-0.006276542320847511,"14":0.2541275918483734,"15":-0.23006314039230347,"16":-0.1336951106786728,"17":0.035455986857414246,"18":0.11037922650575638,"19":0.09194280952215195,"20":0.06340031325817108,"21":-0.1640562266111374,"22":0.03236360475420952,"23":0.06085151433944702,"24":0.07865086197853088,"25":-0.0776040107011795,"26":-0.005343589000403881,"27":0.0977773442864418,"28":-0.1517363339662552,"29":-0.18456290662288666,"30":-0.07743747532367706,"31":0.0490131638944149,"32":0.0663038045167923,"33":-0.059903886169195175,"34":-0.052801523357629776,"35":0.12073403596878052,"36":-0.16784441471099854,"37":-0.08425209671258926,"38":-0.11874213814735413,"39":0.004242206458002329,"40":-0.006451746914535761,"41":0.07785793393850327,"42":0.01764759048819542,"43":0.05693161487579346,"44":-0.11206212639808655,"45":0.044466882944107056,"46":-0.10191367566585541,"47":-0.18092450499534607,"48":0.03896276280283928,"49":0.17161966860294342,"50":-0.09141704440116882,"51":-0.10089800506830215,"52":0.06512445211410522,"53":-0.013838277198374271,"54":-0.1799333244562149,"55":-0.15088213980197906,"56":0.10740672796964645,"57":-0.09226033091545105,"58":0.14769534766674042,"59":0.18694308400154114,"60":0.18311724066734314,"61":0.12423107773065567,"62":0.13094504177570343,"63":-0.13719506561756134,"64":0.07634484767913818,"65":-0.05519699677824974,"66":-0.1639976054430008,"67":-0.038902655243873596,"68":-0.1665429174900055,"69":0.11935785412788391,"70":0.10787642747163773,"71":-0.00028021258185617626,"72":0.039853908121585846,"73":-0.04924365133047104,"74":0.04591451212763786,"75":-0.06524933874607086,"76":-0.08341342210769653,"77":0.07744204252958298,"78":-0.14968377351760864,"79":-0.21052436530590057,"80":-0.189077228307724,"81":-0.06568405032157898,"82":0.09240926802158356,"83":0.18770118057727814,"84":0.026350075379014015,"85":-0.044255346059799194,"86":0.19149751961231232,"87":-0.19116009771823883,"88":-0.18020978569984436,"89":-0.21245555579662323}},"30":{"bias":-0.0634717047214508,"weights":{"0":0.03256191685795784,"1":0.22571814060211182,"2":-0.06276443600654602,"3":0.04666229709982872,"4":0.17905253171920776,"5":-0.0668681263923645,"6":-0.08198951929807663,"7":-0.22427944839000702,"8":-0.3625737428665161,"9":-0.29839709401130676,"10":-0.39671266078948975,"11":-0.22660574316978455,"12":-0.27275723218917847,"13":-0.30463746190071106,"14":-0.21692726016044617,"15":0.34390854835510254,"16":0.4433339238166809,"17":0.1878194957971573,"18":-0.10005826503038406,"19":0.2390146553516388,"20":-0.007883064448833466,"21":0.22628840804100037,"22":0.19339850544929504,"23":0.185182124376297,"24":0.017308851704001427,"25":-0.04563917592167854,"26":-0.012581287883222103,"27":0.21277256309986115,"28":0.2050950527191162,"29":0.2535734474658966,"30":0.23084186017513275,"31":-0.1680818796157837,"32":-0.06758136302232742,"33":0.23276415467262268,"34":0.1917804628610611,"35":0.04404135420918465,"36":0.19302977621555328,"37":-0.050773296505212784,"38":0.14958852529525757,"39":0.18904048204421997,"40":0.04322611540555954,"41":0.11268343031406403,"42":-0.018654778599739075,"43":-0.10536816716194153,"44":0.16616469621658325,"45":-0.18573768436908722,"46":0.15391631424427032,"47":0.030925430357456207,"48":0.0909881517291069,"49":0.17344620823860168,"50":-0.10568827390670776,"51":-0.12455474585294724,"52":0.1703035533428192,"53":-0.014538793824613094,"54":0.20311595499515533,"55":0.033255685120821,"56":0.16607129573822021,"57":0.160372793674469,"58":-0.15904559195041656,"59":-0.04761144891381264,"60":0.0402708500623703,"61":0.09417933970689774,"62":-0.04267348349094391,"63":0.019928470253944397,"64":0.13001194596290588,"65":-0.0958666205406189,"66":-0.0540548600256443,"67":0.1507469117641449,"68":-0.08644519001245499,"69":0.1624334156513214,"70":0.03286544606089592,"71":-0.16924959421157837,"72":-0.06273733079433441,"73":-0.02339106798171997,"74":-0.03252716362476349,"75":0.13083118200302124,"76":-0.13264337182044983,"77":0.183284729719162,"78":0.20039838552474976,"79":-0.059767622500658035,"80":0.04309931769967079,"81":0.17075012624263763,"82":0.046983812004327774,"83":0.11743488162755966,"84":-0.16609686613082886,"85":0.18188638985157013,"86":0.1745198667049408,"87":-0.00547761982306838,"88":0.17635786533355713,"89":0.08327332884073257}},"31":{"bias":-0.11702120304107666,"weights":{"0":0.02588530071079731,"1":0.05909023433923721,"2":-0.0056188106536865234,"3":-0.03080226294696331,"4":-0.18438977003097534,"5":-0.1357560008764267,"6":0.057810258120298386,"7":0.12681172788143158,"8":0.26688551902770996,"9":0.20088236033916473,"10":0.444119930267334,"11":0.15048636496067047,"12":0.21558968722820282,"13":0.04768765717744827,"14":0.28359487652778625,"15":-0.42425766587257385,"16":-0.5840346217155457,"17":-0.5681303143501282,"18":-0.16333624720573425,"19":0.05368831381201744,"20":-0.26591935753822327,"21":0.11535182595252991,"22":-0.30709660053253174,"23":0.08296719938516617,"24":0.06041630357503891,"25":-0.02057955227792263,"26":-0.13256385922431946,"27":-0.3817927837371826,"28":-0.040506646037101746,"29":-0.02762412093579769,"30":-0.20263220369815826,"31":-0.011623113416135311,"32":-0.1922454982995987,"33":-0.26239854097366333,"34":-0.16727302968502045,"35":-0.040991250425577164,"36":0.0736684501171112,"37":-0.02140287309885025,"38":-0.17939205467700958,"39":0.04512970522046089,"40":0.03967967629432678,"41":0.09622269123792648,"42":0.03900089114904404,"43":0.1307554394006729,"44":-0.11842775344848633,"45":-0.1878804713487625,"46":0.024156374856829643,"47":0.10623079538345337,"48":-0.07543201744556427,"49":0.04519154131412506,"50":0.05898449942469597,"51":-0.0977533683180809,"52":0.02407362125813961,"53":-0.15745975077152252,"54":0.12041641026735306,"55":-0.04071100801229477,"56":-0.31591078639030457,"57":-0.11155323684215546,"58":0.009236888028681278,"59":-0.17981058359146118,"60":0.005472667049616575,"61":-0.08529482781887054,"62":-0.07052819430828094,"63":-0.19383171200752258,"64":-0.10856856405735016,"65":0.16133451461791992,"66":-0.012999660335481167,"67":0.18323570489883423,"68":0.05402138829231262,"69":-0.11530907452106476,"70":0.05076322332024574,"71":-0.1969534456729889,"72":-0.13800615072250366,"73":-0.02476026862859726,"74":-0.15154604613780975,"75":0.08021007478237152,"76":-0.08187634497880936,"77":-0.059466999024152756,"78":-0.1031806543469429,"79":0.01889611780643463,"80":0.020582515746355057,"81":-0.02586059272289276,"82":-0.008312295190989971,"83":0.18394245207309723,"84":-0.09814278781414032,"85":0.062056854367256165,"86":-0.18685972690582275,"87":0.09946110099554062,"88":-0.0050388299860060215,"89":0.09316501021385193}},"32":{"bias":-0.15786470472812653,"weights":{"0":0.14008110761642456,"1":0.01303362287580967,"2":-0.1507231742143631,"3":-0.12555575370788574,"4":-0.18654516339302063,"5":0.12814775109291077,"6":0.1650565266609192,"7":-0.05037430673837662,"8":-0.056083839386701584,"9":-0.13338783383369446,"10":0.09990542382001877,"11":-0.24154886603355408,"12":-0.22704948484897614,"13":-0.2055726796388626,"14":-0.12579654157161713,"15":0.103612020611763,"16":-0.1327694058418274,"17":0.13566838204860687,"18":0.1511135995388031,"19":-0.06413327157497406,"20":-0.18325869739055634,"21":-0.01261728722602129,"22":-0.0861663743853569,"23":-0.008120842278003693,"24":0.032681286334991455,"25":0.2052966058254242,"26":0.15672248601913452,"27":-0.08364389836788177,"28":-0.06071820855140686,"29":-0.01060619205236435,"30":-0.15140192210674286,"31":-0.1551537662744522,"32":-0.11481661349534988,"33":0.26376017928123474,"34":-0.09842135012149811,"35":-0.05485529452562332,"36":0.21071778237819672,"37":-0.07669176161289215,"38":0.09276968985795975,"39":0.1922689974308014,"40":-0.11896423250436783,"41":0.07719870656728745,"42":0.1266350895166397,"43":0.03829967975616455,"44":0.18366043269634247,"45":-0.16156309843063354,"46":0.07859726995229721,"47":-0.026812933385372162,"48":0.020895643159747124,"49":0.1262580156326294,"50":-0.17028208076953888,"51":-0.12342390418052673,"52":-0.10934194922447205,"53":-0.1033049002289772,"54":-0.058213651180267334,"55":-0.054588522762060165,"56":0.0719984695315361,"57":0.17788824439048767,"58":-0.001536724390462041,"59":0.05307646840810776,"60":0.06561186909675598,"61":0.14538505673408508,"62":0.14607885479927063,"63":-0.1742444783449173,"64":-0.17959102988243103,"65":0.039047811180353165,"66":-0.08219174295663834,"67":-0.03175028786063194,"68":0.07223973423242569,"69":0.09507182240486145,"70":-0.1587010771036148,"71":-0.027254857122898102,"72":0.08734576404094696,"73":-0.011178662069141865,"74":-0.07969524711370468,"75":-0.0810677707195282,"76":0.06551051884889603,"77":0.0049757868982851505,"78":0.12674596905708313,"79":-0.022844767197966576,"80":-0.1216786801815033,"81":0.034165531396865845,"82":0.05395665764808655,"83":0.13927701115608215,"84":0.020142899826169014,"85":0.04215327650308609,"86":0.2015499770641327,"87":-0.19119742512702942,"88":-0.09570688009262085,"89":0.0485871396958828}},"33":{"bias":-0.20552049577236176,"weights":{"0":-0.12903717160224915,"1":0.06544653326272964,"2":0.039032429456710815,"3":0.01161146815866232,"4":0.13718967139720917,"5":-0.02358422987163067,"6":-0.14798620343208313,"7":-0.23876294493675232,"8":-0.15093933045864105,"9":-0.2938588261604309,"10":-0.400106817483902,"11":-0.3904058337211609,"12":-0.3124307096004486,"13":-0.2209555208683014,"14":-0.0007822757470421493,"15":0.44668859243392944,"16":0.3029686510562897,"17":0.14489920437335968,"18":-0.1561458706855774,"19":-0.047379858791828156,"20":0.2498016357421875,"21":-0.1301446557044983,"22":0.33301040530204773,"23":0.0147853409871459,"24":0.2517312467098236,"25":0.03799844905734062,"26":0.1505405455827713,"27":0.3537398874759674,"28":-0.029263755306601524,"29":0.28203821182250977,"30":0.011771007440984249,"31":0.18645311892032623,"32":0.011028265580534935,"33":0.29994186758995056,"34":0.01520741730928421,"35":0.1887558400630951,"36":-0.0994776040315628,"37":0.17884626984596252,"38":0.15880036354064941,"39":-0.05065035820007324,"40":0.049258776009082794,"41":-0.1614595651626587,"42":0.01013781689107418,"43":0.06191333010792732,"44":-0.06238926574587822,"45":0.02869030088186264,"46":-0.1786762773990631,"47":-0.06784093379974365,"48":0.04815337434411049,"49":0.08966077864170074,"50":0.09885901212692261,"51":0.10402602702379227,"52":0.04648267477750778,"53":0.09192265570163727,"54":0.10194196552038193,"55":0.09998088330030441,"56":0.09132900834083557,"57":0.11265076696872711,"58":-0.08019224554300308,"59":0.0035480810329318047,"60":-0.08942464739084244,"61":-0.09067299216985703,"62":0.16977600753307343,"63":-0.1845855563879013,"64":0.16301333904266357,"65":-0.17628967761993408,"66":0.0348488986492157,"67":0.08089369535446167,"68":0.1994965672492981,"69":0.1374705731868744,"70":-0.019170420244336128,"71":-0.14434468746185303,"72":-0.12261511385440826,"73":-0.046822112053632736,"74":0.17764471471309662,"75":-0.0343741774559021,"76":0.06450114399194717,"77":0.10938651114702225,"78":0.21906238794326782,"79":-0.051636163145303726,"80":0.012263394892215729,"81":0.009099792689085007,"82":-0.059493500739336014,"83":0.0746750682592392,"84":0.16786223649978638,"85":-0.07864806056022644,"86":-0.03337745741009712,"87":0.09301213920116425,"88":-0.060346707701683044,"89":0.12185746431350708}},"34":{"bias":0.11701690405607224,"weights":{"0":0.09695921838283539,"1":-0.12657052278518677,"2":0.1336219608783722,"3":-0.08440913259983063,"4":-0.011595742776989937,"5":0.03707784041762352,"6":-0.07201462984085083,"7":0.08966825157403946,"8":0.28721293807029724,"9":0.41564878821372986,"10":0.20137940347194672,"11":0.23806031048297882,"12":0.09975162148475647,"13":0.23614561557769775,"14":0.139990895986557,"15":-0.5492836236953735,"16":-0.5732045769691467,"17":-0.3384709358215332,"18":-0.18665575981140137,"19":0.050495076924562454,"20":-0.19546270370483398,"21":-0.10020408779382706,"22":-0.0036359289661049843,"23":-0.09505469352006912,"24":-0.22840569913387299,"25":-0.04005395621061325,"26":-0.11764554679393768,"27":-0.30619654059410095,"28":-0.05577686056494713,"29":-0.15800724923610687,"30":-0.23724542558193207,"31":-0.21702899038791656,"32":0.022372649982571602,"33":-0.10471183806657791,"34":-0.27301037311553955,"35":-0.07244154810905457,"36":0.06850221753120422,"37":-0.19855669140815735,"38":-0.12277209013700485,"39":-0.10406268388032913,"40":0.03069756180047989,"41":0.09933982044458389,"42":-0.15504887700080872,"43":0.05720710754394531,"44":0.11770915240049362,"45":-0.09807395190000534,"46":-0.1283743679523468,"47":0.10037931799888611,"48":-0.06670888513326645,"49":0.09380238503217697,"50":0.0682298019528389,"51":-0.12312977761030197,"52":0.1430734544992447,"53":0.1805470585823059,"54":-0.03732600435614586,"55":-0.20011720061302185,"56":0.041353702545166016,"57":-0.13836747407913208,"58":-0.08796536922454834,"59":-0.07611190527677536,"60":-0.022435234859585762,"61":-0.09581030160188675,"62":0.10655706375837326,"63":0.005032512824982405,"64":0.025113316252827644,"65":-0.1165819838643074,"66":-0.07998283952474594,"67":-0.03309749439358711,"68":0.1326541155576706,"69":-0.1410282701253891,"70":0.12358804792165756,"71":-0.11823807656764984,"72":0.0011336522875353694,"73":0.11933103948831558,"74":0.0011990090133622289,"75":-0.03670986369252205,"76":-0.10612557828426361,"77":0.0637802705168724,"78":-0.1007009744644165,"79":0.101158007979393,"80":0.07708033174276352,"81":-0.1656150370836258,"82":0.09674804657697678,"83":-0.029758106917142868,"84":-0.1350971907377243,"85":0.0990162268280983,"86":-0.015176449902355671,"87":-0.036634065210819244,"88":-0.12202239036560059,"89":-0.1472979336977005}},"35":{"bias":0.010067279450595379,"weights":{"0":-0.16906483471393585,"1":0.20218372344970703,"2":-0.07939472049474716,"3":0.05861291661858559,"4":0.02213176339864731,"5":0.18555794656276703,"6":0.17166009545326233,"7":-0.05548352003097534,"8":-0.047876108437776566,"9":-0.3360712230205536,"10":-0.2156548947095871,"11":-0.3857322633266449,"12":-0.3513278663158417,"13":-0.16981740295886993,"14":-0.10896982252597809,"15":0.3242102861404419,"16":0.23474685847759247,"17":0.24681012332439423,"18":-0.03584679588675499,"19":0.1125481054186821,"20":0.0567825622856617,"21":0.14370089769363403,"22":-0.013064791448414326,"23":0.22147949039936066,"24":0.06052137911319733,"25":-0.10185367614030838,"26":-0.05436522886157036,"27":-0.004530047066509724,"28":0.19941389560699463,"29":0.27033400535583496,"30":-0.11409202963113785,"31":-0.11703326553106308,"32":-0.0071207876317203045,"33":0.17256928980350494,"34":0.012217403389513493,"35":0.17433752119541168,"36":0.012250822968780994,"37":0.20109626650810242,"38":-0.13609465956687927,"39":0.1587005853652954,"40":0.13383138179779053,"41":-0.012652507051825523,"42":-0.16340012848377228,"43":-0.04328804463148117,"44":0.041863419115543365,"45":-0.13892576098442078,"46":0.19463308155536652,"47":-0.15730643272399902,"48":-0.1944316029548645,"49":0.029371162876486778,"50":-0.011136194691061974,"51":0.10665634274482727,"52":-0.06399374455213547,"53":0.13973760604858398,"54":0.025824056938290596,"55":-0.07442992180585861,"56":0.19299517571926117,"57":0.2808329164981842,"58":0.09961344301700592,"59":0.1131581962108612,"60":0.22624614834785461,"61":-0.117836594581604,"62":-0.08800800144672394,"63":-0.06922809779644012,"64":0.1991039365530014,"65":0.07459650933742523,"66":0.04423085227608681,"67":0.19933998584747314,"68":-0.15168550610542297,"69":0.14356845617294312,"70":0.10152063518762589,"71":0.1466044783592224,"72":0.166823610663414,"73":-0.14939014613628387,"74":0.16914083063602448,"75":-0.07747266441583633,"76":-0.08912491053342819,"77":0.16355104744434357,"78":0.3223192095756531,"79":0.2318340688943863,"80":0.06999621540307999,"81":0.06615374237298965,"82":-0.06169641390442848,"83":-0.08699584752321243,"84":-0.16035765409469604,"85":-0.10604310780763626,"86":-0.0549168698489666,"87":0.10284550487995148,"88":0.13271677494049072,"89":0.20544929802417755}},"36":{"bias":-0.15197739005088806,"weights":{"0":-0.13550546765327454,"1":-0.12418930977582932,"2":0.16452758014202118,"3":-0.019147712737321854,"4":-0.16877827048301697,"5":-0.10342007875442505,"6":0.023345788940787315,"7":-0.45793479681015015,"8":-0.13314135372638702,"9":-0.5890405774116516,"10":-0.3794024884700775,"11":-0.2096584141254425,"12":-0.5037634968757629,"13":-0.4379643499851227,"14":-0.32556602358818054,"15":0.4843842387199402,"16":0.6896907091140747,"17":0.41856253147125244,"18":0.05067238584160805,"19":-0.08138598501682281,"20":0.15575288236141205,"21":0.17702524363994598,"22":0.1108630895614624,"23":0.1817876249551773,"24":0.17783969640731812,"25":0.066582091152668,"26":0.20773738622665405,"27":0.46413981914520264,"28":0.20984293520450592,"29":-0.0002140382130164653,"30":0.03809061646461487,"31":0.23549692332744598,"32":0.22053173184394836,"33":0.5165572166442871,"34":0.19339677691459656,"35":0.14282943308353424,"36":0.23714226484298706,"37":0.21158958971500397,"38":-0.12879031896591187,"39":0.3520452082157135,"40":0.10466249287128448,"41":-0.18214403092861176,"42":0.0036455090157687664,"43":-0.1320863962173462,"44":-0.1742573380470276,"45":-0.02990451082587242,"46":-0.06695067882537842,"47":-0.1168479323387146,"48":-0.18001827597618103,"49":0.1284092664718628,"50":0.005637276917695999,"51":0.07558295130729675,"52":0.10995446145534515,"53":0.18365637958049774,"54":0.14471738040447235,"55":0.14041288197040558,"56":0.19349004328250885,"57":0.013343377970159054,"58":-0.0025879477616399527,"59":0.02336709201335907,"60":0.10237767547369003,"61":-0.12327883392572403,"62":-0.07044686377048492,"63":-0.10453005135059357,"64":-0.004036496859043837,"65":-0.020808782428503036,"66":0.20283852517604828,"67":-0.09542755782604218,"68":0.0399860255420208,"69":-0.19140608608722687,"70":0.10304708778858185,"71":-0.00011453759361756966,"72":0.04885110631585121,"73":-0.09250408411026001,"74":0.035445746034383774,"75":0.12450346350669861,"76":-0.02819824032485485,"77":0.14154067635536194,"78":0.22214852273464203,"79":-0.03890037164092064,"80":0.1972440630197525,"81":0.14712372422218323,"82":0.06579135358333588,"83":0.17954395711421967,"84":0.16895052790641785,"85":-0.059231847524642944,"86":-0.03232372924685478,"87":-0.08871500939130783,"88":-0.024833612143993378,"89":-0.01413145661354065}},"37":{"bias":-0.10613183677196503,"weights":{"0":0.17691440880298615,"1":0.12053415179252625,"2":-0.01578155905008316,"3":-0.15458349883556366,"4":0.0018221760401502252,"5":-0.01794041506946087,"6":0.005370778031647205,"7":-0.27087247371673584,"8":0.08088681101799011,"9":-0.07791801542043686,"10":-0.07684501260519028,"11":-0.04219241440296173,"12":-0.12512078881263733,"13":-0.24321655929088593,"14":-0.012810911051928997,"15":0.27272599935531616,"16":0.261952668428421,"17":0.17926537990570068,"18":0.08811482787132263,"19":0.17070862650871277,"20":0.12348582595586777,"21":-0.16010570526123047,"22":0.04539258033037186,"23":0.012253613211214542,"24":0.19968344271183014,"25":0.015202135778963566,"26":-0.039043646305799484,"27":0.13082194328308105,"28":0.059414882212877274,"29":-0.07568377256393433,"30":0.01797906495630741,"31":0.2109769582748413,"32":-0.1803019642829895,"33":0.22435899078845978,"34":0.20825038850307465,"35":0.04090321809053421,"36":0.02633105404675007,"37":0.15449468791484833,"38":-0.13071995973587036,"39":0.09420587867498398,"40":0.008350328542292118,"41":-0.13881991803646088,"42":0.06705959141254425,"43":0.08023560792207718,"44":0.027138998731970787,"45":-0.021818865090608597,"46":0.1470872163772583,"47":0.14946125447750092,"48":0.08902887254953384,"49":-0.020535483956336975,"50":-0.0664043053984642,"51":0.06327424198389053,"52":0.0868605375289917,"53":-0.10503451526165009,"54":0.07891335338354111,"55":-0.0019349553622305393,"56":0.0238282959908247,"57":0.1941300481557846,"58":0.04627005755901337,"59":-0.033557914197444916,"60":0.06350898742675781,"61":-0.004754330031573772,"62":-0.1763744354248047,"63":-0.0526893176138401,"64":-0.16326697170734406,"65":0.03408435359597206,"66":0.1843392550945282,"67":0.04376436769962311,"68":-0.15446485579013824,"69":0.05810549482703209,"70":0.11885178089141846,"71":0.15021006762981415,"72":-0.0014365973183885217,"73":0.006006297655403614,"74":0.19620852172374725,"75":0.05849028751254082,"76":-0.14577873051166534,"77":-0.06615535169839859,"78":-0.047780729830265045,"79":-0.046545062214136124,"80":0.18519636988639832,"81":0.014549932442605495,"82":0.12421772629022598,"83":-0.13246570527553558,"84":0.12089300155639648,"85":0.18441998958587646,"86":-0.13261611759662628,"87":0.11822996288537979,"88":-0.11177100986242294,"89":0.06455869972705841}},"38":{"bias":0.08749773353338242,"weights":{"0":-0.1873198300600052,"1":0.04826152324676514,"2":-0.14972221851348877,"3":0.10908038169145584,"4":-0.12946048378944397,"5":-0.11020469665527344,"6":-0.08546622097492218,"7":0.15794691443443298,"8":0.1398535817861557,"9":0.2833811640739441,"10":0.22312290966510773,"11":0.0560811385512352,"12":0.2022324800491333,"13":-0.10684887319803238,"14":0.06166284903883934,"15":-0.1157241240143776,"16":-0.14377807080745697,"17":-0.18667662143707275,"18":0.147063747048378,"19":0.13359031081199646,"20":0.060395997017621994,"21":-0.10225392132997513,"22":0.11451339721679688,"23":-0.18559347093105316,"24":0.1758703589439392,"25":0.09511032700538635,"26":0.07538295537233353,"27":0.07320109754800797,"28":0.11869078874588013,"29":0.10176388919353485,"30":-0.035970576107501984,"31":-0.013755075633525848,"32":0.07586445659399033,"33":0.12348577380180359,"34":-0.041910894215106964,"35":-0.2065955102443695,"36":0.16487352550029755,"37":-0.07704490423202515,"38":0.000959633442107588,"39":-0.11838161200284958,"40":0.05191859230399132,"41":-0.011664705350995064,"42":-0.09367278963327408,"43":0.12780547142028809,"44":0.13860179483890533,"45":0.08576028048992157,"46":0.055675189942121506,"47":-0.06057021766901016,"48":-0.14799994230270386,"49":-0.026828184723854065,"50":-0.1878911852836609,"51":0.11149204522371292,"52":0.17155000567436218,"53":-0.09676868468523026,"54":0.12753960490226746,"55":0.020718112587928772,"56":0.008513294160366058,"57":-0.08516868203878403,"58":0.09116651862859726,"59":-0.1134083941578865,"60":0.18608598411083221,"61":-0.04803261160850525,"62":0.028053460642695427,"63":-0.04028862342238426,"64":-0.017556654289364815,"65":-0.1968393474817276,"66":0.007112860679626465,"67":0.053549446165561676,"68":0.06853706389665604,"69":0.1346919685602188,"70":-0.14882510900497437,"71":0.1366332769393921,"72":-0.08349987864494324,"73":0.12470222264528275,"74":0.0692148432135582,"75":-0.04046839848160744,"76":0.1582212597131729,"77":0.08395165950059891,"78":-0.021372374147176743,"79":0.06661814451217651,"80":-0.13786986470222473,"81":0.04895586520433426,"82":-0.09855218976736069,"83":-0.09867589920759201,"84":0.19840408861637115,"85":0.008901825174689293,"86":-0.11625046283006668,"87":0.17364118993282318,"88":-0.186741441488266,"89":-0.20180198550224304}},"39":{"bias":-0.13699811697006226,"weights":{"0":0.10929674655199051,"1":-0.17525315284729004,"2":0.12945130467414856,"3":-0.05334725230932236,"4":0.04014655575156212,"5":-0.022137003019452095,"6":0.11494554579257965,"7":0.264312744140625,"8":0.06651594489812851,"9":0.3886280655860901,"10":0.11243919283151627,"11":0.29309889674186707,"12":0.37510570883750916,"13":0.07998061180114746,"14":0.23421186208724976,"15":-0.1784309595823288,"16":-0.46453264355659485,"17":-0.42248737812042236,"18":-0.07287880033254623,"19":-0.12757457792758942,"20":0.07552015781402588,"21":-0.08879924565553665,"22":-0.24410629272460938,"23":0.08324111253023148,"24":-0.1912994384765625,"25":0.04058704525232315,"26":-0.09423021972179413,"27":-0.3233933746814728,"28":-0.06639033555984497,"29":-0.10899487137794495,"30":-0.10002398490905762,"31":-0.11103184521198273,"32":-0.08038923144340515,"33":-0.2471216768026352,"34":-0.21919888257980347,"35":-0.14581190049648285,"36":-0.23459665477275848,"37":0.13076652586460114,"38":-0.08623125404119492,"39":-0.0003605764068197459,"40":0.13095849752426147,"41":-0.00556216761469841,"42":-0.0819883868098259,"43":0.01577487401664257,"44":0.10786216706037521,"45":0.057959798723459244,"46":-0.06147999316453934,"47":0.04157668352127075,"48":-0.011097585782408714,"49":0.037584803998470306,"50":0.13067665696144104,"51":-0.13663452863693237,"52":-0.027660105377435684,"53":-0.202638640999794,"54":0.013338939286768436,"55":-0.23956343531608582,"56":-0.1638180911540985,"57":-0.2866511344909668,"58":0.029122961685061455,"59":0.12257242947816849,"60":-0.16935007274150848,"61":0.076476089656353,"62":0.16653819382190704,"63":-0.20241779088974,"64":-0.13958685100078583,"65":-0.09832752496004105,"66":0.1529921591281891,"67":-0.11364627629518509,"68":-0.10778447985649109,"69":-0.12879736721515656,"70":-0.17861588299274445,"71":0.08227662742137909,"72":-0.07858981937170029,"73":0.0683470219373703,"74":-0.09873491525650024,"75":-0.007715610787272453,"76":-0.17134061455726624,"77":0.05989834666252136,"78":-0.12812359631061554,"79":-0.2284732460975647,"80":0.15227718651294708,"81":-0.10539696365594864,"82":0.13925285637378693,"83":-0.20098531246185303,"84":0.013454047963023186,"85":0.013963327743113041,"86":0.017616724595427513,"87":0.051365215331315994,"88":-0.009837009012699127,"89":-0.20998498797416687}},"40":{"bias":-0.0678316056728363,"weights":{"0":0.0799131840467453,"1":-0.02431274764239788,"2":0.1991650015115738,"3":-0.11310139298439026,"4":0.0836404487490654,"5":0.0625116303563118,"6":0.004997539333999157,"7":-0.5313194394111633,"8":-0.06267771869897842,"9":-0.46591538190841675,"10":-0.7056995034217834,"11":-0.5167021155357361,"12":-0.2150093913078308,"13":-0.42598915100097656,"14":-0.3950693607330322,"15":0.5945391654968262,"16":0.4876093566417694,"17":0.5566221475601196,"18":0.2002028524875641,"19":0.2771628201007843,"20":0.11937861889600754,"21":-0.030888088047504425,"22":0.4468369483947754,"23":0.13764014840126038,"24":-0.07041972875595093,"25":0.29750919342041016,"26":0.26559892296791077,"27":0.3844054639339447,"28":0.23443523049354553,"29":-0.0457511804997921,"30":-0.10822302103042603,"31":-0.08603937923908234,"32":0.23219183087348938,"33":0.3849281072616577,"34":0.21806210279464722,"35":0.22492176294326782,"36":0.012242013588547707,"37":-0.07166747748851776,"38":-0.05380662530660629,"39":0.15600579977035522,"40":0.07611791789531708,"41":-0.036631450057029724,"42":-0.07058854401111603,"43":-0.0775311216711998,"44":-0.12118149548768997,"45":0.06670698523521423,"46":0.1560053527355194,"47":-0.14882291853427887,"48":-0.021343277767300606,"49":0.15092578530311584,"50":0.15000128746032715,"51":0.09919189661741257,"52":0.10596197843551636,"53":0.0340745747089386,"54":0.0912863165140152,"55":0.05107554420828819,"56":0.16141805052757263,"57":0.4069272577762604,"58":0.10726673901081085,"59":0.010415308177471161,"60":0.16556279361248016,"61":-0.0657210424542427,"62":0.06238232180476189,"63":-0.02665056847035885,"64":0.1659589260816574,"65":-0.12410447001457214,"66":0.20308318734169006,"67":0.0971195325255394,"68":-0.10639908909797668,"69":-0.19328317046165466,"70":-0.005464968271553516,"71":-0.01285095326602459,"72":0.14196664094924927,"73":-0.05567857250571251,"74":-0.1339755803346634,"75":-0.05747298523783684,"76":0.05825192481279373,"77":-0.001482771011069417,"78":0.34014397859573364,"79":0.27471044659614563,"80":0.2362145334482193,"81":-0.006745623424649239,"82":0.16284897923469543,"83":0.09413354098796844,"84":0.11182370036840439,"85":0.1889985352754593,"86":0.0022005997598171234,"87":-0.053505852818489075,"88":0.03566399961709976,"89":0.3112905025482178}},"41":{"bias":-0.1620377153158188,"weights":{"0":-0.1899545043706894,"1":0.13473182916641235,"2":-0.055857788771390915,"3":-0.12653033435344696,"4":0.19368429481983185,"5":0.08080445230007172,"6":0.0020248398650437593,"7":-0.15180666744709015,"8":-0.26106566190719604,"9":-0.36675843596458435,"10":-0.23671963810920715,"11":-0.3859991133213043,"12":-0.04493920877575874,"13":-0.34189799427986145,"14":-0.24145697057247162,"15":0.2827741801738739,"16":0.4421449899673462,"17":0.26949000358581543,"18":0.0874466523528099,"19":0.19062750041484833,"20":0.13938428461551666,"21":0.14088588953018188,"22":0.3013564348220825,"23":0.10806335508823395,"24":-0.061936572194099426,"25":0.2792942225933075,"26":-0.03917959704995155,"27":0.2054884433746338,"28":-0.05047459900379181,"29":-0.012682005763053894,"30":0.07594766467809677,"31":0.18934783339500427,"32":0.009961584582924843,"33":0.3191675543785095,"34":0.02340061403810978,"35":-0.008104508742690086,"36":-0.04840749874711037,"37":-0.11488278955221176,"38":-0.06672970205545425,"39":-0.06004593148827553,"40":-0.13992372155189514,"41":-0.06824281066656113,"42":-0.14025332033634186,"43":-0.0544922761619091,"44":0.1501915156841278,"45":0.202596053481102,"46":-0.15451757609844208,"47":0.004982767626643181,"48":0.08234836161136627,"49":0.0290956050157547,"50":0.06935075670480728,"51":0.00759295467287302,"52":-0.0826333612203598,"53":0.09522353857755661,"54":0.09914808720350266,"55":0.0710376501083374,"56":0.14946629106998444,"57":0.14838683605194092,"58":0.1540805548429489,"59":0.052532441914081573,"60":0.17848901450634003,"61":0.11201459914445877,"62":-0.06461929529905319,"63":0.09932289272546768,"64":0.034779924899339676,"65":0.163864403963089,"66":0.09981697797775269,"67":-0.1433001458644867,"68":-0.029043976217508316,"69":0.14033952355384827,"70":-0.14688383042812347,"71":-0.03436679020524025,"72":0.18986251950263977,"73":-0.1936037242412567,"74":-0.14702434837818146,"75":0.146712988615036,"76":0.17565171420574188,"77":-0.1812736690044403,"78":0.25572851300239563,"79":-0.004527607467025518,"80":-0.037122346460819244,"81":0.17645001411437988,"82":-0.18690188229084015,"83":0.05722014233469963,"84":0.12471038848161697,"85":0.110265351831913,"86":0.06057364493608475,"87":0.10828937590122223,"88":0.07682272791862488,"89":0.20407219231128693}},"42":{"bias":-0.15715575218200684,"weights":{"0":0.10217960178852081,"1":0.15928594768047333,"2":-0.030452392995357513,"3":0.13295768201351166,"4":-0.13610631227493286,"5":0.025093713775277138,"6":-0.10668622702360153,"7":0.17336885631084442,"8":-0.13319876790046692,"9":0.2909736931324005,"10":0.14184345304965973,"11":0.05942310020327568,"12":0.14393609762191772,"13":0.20256516337394714,"14":0.04589098319411278,"15":-0.1807510256767273,"16":-0.3548193871974945,"17":-0.03557222709059715,"18":-0.05987127497792244,"19":-0.12692232429981232,"20":-0.040121566504240036,"21":-0.033024199306964874,"22":0.005611450411379337,"23":-0.10030689835548401,"24":-0.056658703833818436,"25":-0.1383950114250183,"26":-0.07516177743673325,"27":0.007582002319395542,"28":0.12665611505508423,"29":-0.19630078971385956,"30":-0.14688856899738312,"31":0.14962592720985413,"32":0.04404159262776375,"33":-0.15870296955108643,"34":0.03454042971134186,"35":-0.098611019551754,"36":-0.14641177654266357,"37":0.0008110841154120862,"38":0.06313394010066986,"39":-0.10545958578586578,"40":0.04806142672896385,"41":0.05894370377063751,"42":0.17033113539218903,"43":0.10829723626375198,"44":-0.09058794379234314,"45":0.15704752504825592,"46":0.03288182616233826,"47":-0.18792535364627838,"48":0.08766652643680573,"49":0.09807609021663666,"50":-0.18098598718643188,"51":0.13676227629184723,"52":-0.06995730847120285,"53":0.10549771785736084,"54":0.04930469021201134,"55":-0.01817193627357483,